~o
<STREAMINFO> 1 39
<VECSIZE> 39<NULLD><MFCC_E_D_A_Z><DIAGC>
~s "silst"
<NUMMIXES> 3
<MIXTURE> 1 4.017006e-01
<MEAN> 39
 -5.306411e+00 -8.840215e-01 3.794265e+00 6.468256e+00 4.514844e+00 7.191894e+00 3.587682e+00 5.377470e+00 3.309010e+00 3.625925e+00 3.090051e+00 1.653349e+00 2.874288e-01 -2.460315e+00 -1.155325e+00 -1.329825e+00 4.094329e-01 5.743010e-01 1.244779e+00 1.370626e+00 1.858852e+00 1.326157e+00 1.133982e+00 8.926393e-01 4.369775e-01 -8.077574e-02 4.859490e-01 3.895602e-01 -1.482017e-01 -5.146077e-01 -4.768608e-01 -6.522024e-01 -3.842132e-01 -4.805021e-01 -2.387286e-01 -3.393217e-01 -2.962247e-01 -1.582234e-01 3.054412e-02
<VARIANCE> 39
 2.480896e+01 3.884890e+01 2.710221e+01 2.723885e+01 3.002036e+01 3.480584e+01 3.675108e+01 4.084524e+01 3.548655e+01 3.389619e+01 3.186255e+01 2.759158e+01 3.141155e-02 2.332172e+00 3.078555e+00 2.824038e+00 2.877704e+00 2.930167e+00 3.701169e+00 4.059614e+00 4.172755e+00 3.559416e+00 3.556210e+00 3.410080e+00 3.271680e+00 4.735857e-03 3.546473e-01 5.719274e-01 4.264639e-01 5.444258e-01 5.374544e-01 5.657589e-01 6.301535e-01 6.778680e-01 6.852269e-01 6.765729e-01 5.913957e-01 5.333085e-01 5.754050e-04
<GCONST> 1.042265e+02
<MIXTURE> 2 1.329689e-01
<MEAN> 39
 1.444604e+00 3.449600e+00 4.158990e+00 2.127443e+00 1.223909e+00 1.396937e+00 3.619939e-01 1.695107e+00 2.825768e+00 2.787519e+00 2.465415e+00 2.862746e+00 4.034311e-01 2.285725e+00 1.959370e+00 -9.295795e-01 -1.808734e+00 -1.958209e+00 -2.201737e+00 -1.833027e+00 -1.569725e+00 -1.208482e+00 -5.782049e-01 -3.816882e-01 -6.469578e-02 1.780128e-01 -2.665896e-01 -2.585859e-01 -3.132660e-01 -2.649674e-01 2.725483e-02 8.508866e-02 4.761096e-02 1.126226e-01 -5.879408e-02 -1.569428e-01 -1.530866e-01 -1.806081e-01 -5.499084e-03
<VARIANCE> 39
 3.444837e+01 5.217437e+01 4.964252e+01 4.137541e+01 4.074659e+01 4.301052e+01 5.241688e+01 5.478161e+01 4.601114e+01 5.201361e+01 5.795159e+01 4.007806e+01 5.059270e-02 2.990770e+00 3.933260e+00 5.593185e+00 4.142637e+00 3.935946e+00 4.571361e+00 4.700508e+00 4.084712e+00 4.170075e+00 4.237390e+00 4.700513e+00 4.404214e+00 4.358497e-03 5.323822e-01 4.429524e-01 6.518645e-01 7.730894e-01 6.670982e-01 6.698952e-01 8.457138e-01 7.996384e-01 8.387040e-01 8.723630e-01 9.038671e-01 7.740653e-01 7.951137e-04
<GCONST> 1.155631e+02
<MIXTURE> 3 4.653247e-01
<MEAN> 39
 -4.977492e+00 -2.152128e+00 6.595463e-01 2.678561e+00 2.074435e+00 3.884078e+00 1.641015e+00 3.189178e+00 3.403562e+00 1.538158e+00 2.138373e+00 1.563949e+00 1.062583e-01 -9.676558e-01 -2.266637e-01 -5.186425e-01 -6.964002e-03 -1.647621e-01 -4.575476e-02 -2.181556e-02 7.772715e-02 2.802083e-02 4.960302e-02 1.017214e-01 4.201404e-02 -2.055741e-02 3.027417e-01 3.464249e-01 2.305557e-01 1.342325e-01 9.926028e-02 1.439589e-02 4.384743e-03 -1.002031e-01 -6.255165e-02 -4.304079e-02 -1.007719e-01 -5.396995e-02 2.233964e-02
<VARIANCE> 39
 3.068751e+01 4.294950e+01 2.578986e+01 2.513445e+01 2.733123e+01 2.748381e+01 3.059125e+01 3.339123e+01 2.764647e+01 2.677785e+01 2.568650e+01 1.974494e+01 2.931322e-02 1.746890e+00 2.127658e+00 1.900042e+00 1.870619e+00 1.828858e+00 1.963866e+00 2.141976e+00 2.217100e+00 2.244292e+00 2.075570e+00 2.016999e+00 1.771374e+00 3.952407e-03 2.471049e-01 3.819884e-01 3.077316e-01 3.182892e-01 3.843847e-01 3.955463e-01 4.237111e-01 4.619612e-01 4.610455e-01 4.357934e-01 4.112684e-01 3.550265e-01 5.549217e-04
<GCONST> 9.166444e+01
~h "#i"
<BEGINHMM>
<NUMSTATES> 12
<STATE> 2
<NUMMIXES> 10
<MIXTURE> 1 1.403796e-02
<MEAN> 39
 -5.835203e+00 1.003784e+01 -4.952173e+00 -3.673823e+00 -6.329182e+00 -4.516138e+00 1.365083e+00 -9.926326e-02 7.994119e+00 9.488764e+00 9.669688e+00 1.106444e+01 8.740831e-01 -9.171270e-01 2.640471e-02 7.573766e-02 9.303395e-02 2.149439e-01 9.769714e-02 -8.992444e-01 -2.527522e-01 1.942120e+00 3.513566e+00 3.046230e+00 2.051825e+00 3.772851e-02 6.494085e-01 -6.121057e-02 3.954344e-01 1.589712e-01 2.636372e-01 5.366839e-01 4.826865e-01 5.774017e-01 -9.691273e-02 -6.122144e-01 -1.240527e+00 -1.326353e+00 -2.393281e-02
<VARIANCE> 39
 1.223579e+01 3.369380e+01 2.645664e+01 2.599541e+01 1.401901e+01 1.087752e+01 3.330404e+01 2.610480e+01 7.543024e+01 9.611929e+01 3.411548e+01 5.961979e+01 3.198924e-03 8.490939e-01 6.076966e-01 7.449234e-01 9.294214e-01 5.411755e-01 1.073705e+00 1.473192e+00 1.365350e+00 2.313161e+00 1.915752e+00 2.695683e+00 2.936491e+00 1.727638e-04 7.457887e-02 1.581260e-01 3.162680e-01 3.367506e-01 2.399769e-01 3.182753e-01 3.973235e-01 2.187826e-01 6.280158e-01 1.033852e+00 4.598408e-01 2.738313e-01 2.683808e-04
<GCONST> 7.838774e+01
<MIXTURE> 2 4.939650e-02
<MEAN> 39
 -1.089277e+00 1.006644e+01 -5.468517e+00 -3.885625e+00 -6.192401e+00 -5.738358e+00 -9.276545e-01 -1.127400e+00 -4.420881e-01 4.860195e-01 1.694742e+00 4.975537e+00 8.453837e-01 -1.222370e+00 -1.828859e-01 -3.517641e-01 9.638190e-03 -3.993840e-01 -5.746750e-01 -1.090726e+00 -1.316140e+00 -8.977091e-01 -3.643776e-01 8.124013e-01 1.338799e+00 4.499581e-02 7.258540e-02 -3.883419e-01 4.949612e-01 5.645866e-01 5.629038e-01 5.689838e-01 2.312901e-01 4.261106e-01 3.247530e-01 2.881294e-01 1.047655e-01 -9.292361e-02 -2.901902e-02
<VARIANCE> 39
 1.446000e+01 4.163646e+01 2.183723e+01 1.442553e+01 2.668098e+01 2.910713e+01 3.090148e+01 2.399242e+01 3.068503e+01 4.216047e+01 5.102033e+01 8.663042e+01 7.658895e-03 6.463630e-01 6.359532e-01 8.720378e-01 1.250147e+00 1.328771e+00 1.378758e+00 1.634944e+00 2.270700e+00 3.279392e+00 3.782760e+00 7.460008e+00 8.280094e+00 4.560963e-04 1.600843e-01 3.581605e-01 2.588688e-01 2.259831e-01 4.447209e-01 4.996074e-01 3.732427e-01 3.035712e-01 3.257694e-01 5.336638e-01 5.078590e-01 7.829323e-01 4.103174e-04
<GCONST> 8.799420e+01
<MIXTURE> 3 1.003532e-01
<MEAN> 39
 -7.617831e-02 1.155507e+01 -3.091024e+00 -2.819403e+00 -6.157112e+00 -5.101137e+00 -4.236292e+00 -7.751601e-01 -5.134334e+00 -2.872064e+00 -3.812880e+00 -1.115586e+00 7.862508e-01 -6.791832e-02 6.317053e-01 6.414891e-02 5.396817e-01 -1.659400e-01 1.197652e-01 -1.248487e-01 -2.322353e-01 -3.031170e-01 -1.455976e-01 -3.290370e-01 5.307642e-01 1.397007e-02 4.799781e-02 -4.777501e-02 1.154810e-01 -2.726186e-02 2.088297e-01 2.257515e-02 1.042844e-01 1.651142e-01 4.322439e-01 2.241020e-01 3.207511e-01 1.038437e-01 6.891205e-05
<VARIANCE> 39
 1.037407e+01 2.907480e+01 2.065125e+01 2.408597e+01 1.941092e+01 2.889360e+01 3.887660e+01 3.356679e+01 2.567880e+01 2.517506e+01 4.061826e+01 4.506756e+01 1.120324e-02 5.694360e-01 7.516984e-01 9.423827e-01 1.242960e+00 1.349004e+00 1.641212e+00 2.075114e+00 1.993856e+00 2.292084e+00 2.012927e+00 2.390775e+00 2.485458e+00 4.561456e-04 9.014188e-02 1.160116e-01 1.767114e-01 2.424355e-01 2.470370e-01 3.987397e-01 3.670604e-01 3.450420e-01 3.552440e-01 3.614732e-01 4.125143e-01 3.982974e-01 8.566830e-05
<GCONST> 7.841621e+01
<MIXTURE> 4 1.126458e-01
<MEAN> 39
 1.608811e+00 1.259479e+01 -1.428051e+00 -2.367298e+00 -3.643499e+00 -4.776022e+00 -4.797228e-01 2.485300e+00 9.028106e-01 2.060846e+00 1.307738e-01 1.527871e+00 7.150712e-01 -2.447537e-01 1.267871e+00 -5.566819e-01 3.931775e-01 -7.749617e-01 -4.532480e-01 -8.419932e-01 -6.484693e-01 -7.255780e-01 -4.534110e-01 -4.195483e-01 8.197974e-02 2.292418e-02 -1.283549e-01 -5.603148e-01 9.175962e-03 -3.816809e-02 -1.005324e-01 1.253432e-01 -1.146352e-01 -2.368574e-01 -2.333914e-01 -2.725315e-01 -1.618081e-01 -1.113354e-01 1.130332e-03
<VARIANCE> 39
 1.297008e+01 2.979159e+01 2.220335e+01 3.125232e+01 2.208724e+01 2.628768e+01 4.856077e+01 2.931604e+01 2.944364e+01 3.534016e+01 4.131451e+01 4.996623e+01 1.428265e-02 7.823142e-01 1.922719e+00 1.309447e+00 2.117572e+00 1.725580e+00 2.660146e+00 2.193118e+00 2.691616e+00 2.617564e+00 2.957069e+00 3.758823e+00 2.911468e+00 1.284113e-03 1.599735e-01 3.584296e-01 2.509671e-01 3.965919e-01 4.419825e-01 5.605034e-01 4.602078e-01 4.201967e-01 4.195042e-01 4.315025e-01 5.551826e-01 6.205119e-01 3.095928e-04
<GCONST> 9.158220e+01
<MIXTURE> 5 1.003550e-01
<MEAN> 39
 -7.623211e-02 1.155503e+01 -3.091037e+00 -2.819465e+00 -6.157121e+00 -5.101215e+00 -4.236336e+00 -7.751877e-01 -5.134360e+00 -2.872054e+00 -3.812891e+00 -1.115662e+00 7.862521e-01 -6.792232e-02 6.317040e-01 6.414379e-02 5.396888e-01 -1.659482e-01 1.197669e-01 -1.248571e-01 -2.322527e-01 -3.031421e-01 -1.456054e-01 -3.290475e-01 5.307595e-01 1.396997e-02 4.800338e-02 -4.777618e-02 1.154854e-01 -2.725927e-02 2.088341e-01 2.258761e-02 1.042905e-01 1.651209e-01 4.322491e-01 2.241040e-01 3.207534e-01 1.038508e-01 6.882392e-05
<VARIANCE> 39
 1.037410e+01 2.907479e+01 2.065131e+01 2.408615e+01 1.941096e+01 2.889394e+01 3.887676e+01 3.356683e+01 2.567892e+01 2.517514e+01 4.061823e+01 4.506763e+01 1.120317e-02 5.694309e-01 7.517042e-01 9.423875e-01 1.242971e+00 1.349020e+00 1.641226e+00 2.075124e+00 1.993857e+00 2.292074e+00 2.012956e+00 2.390789e+00 2.485465e+00 4.561460e-04 9.014185e-02 1.160114e-01 1.767130e-01 2.424363e-01 2.470399e-01 3.987431e-01 3.670606e-01 3.450451e-01 3.552459e-01 3.614783e-01 4.125152e-01 3.982961e-01 8.566818e-05
<GCONST> 7.841637e+01
<MIXTURE> 6 1.126428e-01
<MEAN> 39
 1.609087e+00 1.259497e+01 -1.428136e+00 -2.366934e+00 -3.643590e+00 -4.775635e+00 -4.796078e-01 2.485357e+00 9.026894e-01 2.061102e+00 1.306163e-01 1.528270e+00 7.150660e-01 -2.447262e-01 1.267744e+00 -5.566010e-01 3.930681e-01 -7.749336e-01 -4.532044e-01 -8.419700e-01 -6.484233e-01 -7.255239e-01 -4.533856e-01 -4.195972e-01 8.197238e-02 2.292563e-02 -1.283904e-01 -5.602787e-01 9.150737e-03 -3.821076e-02 -1.005054e-01 1.252617e-01 -1.146614e-01 -2.368656e-01 -2.333827e-01 -2.725592e-01 -1.617933e-01 -1.113616e-01 1.130855e-03
<VARIANCE> 39
 1.296964e+01 2.979114e+01 2.220308e+01 3.125031e+01 2.208631e+01 2.628545e+01 4.856008e+01 2.931539e+01 2.944289e+01 3.533954e+01 4.131388e+01 4.996626e+01 1.428255e-02 7.823042e-01 1.922617e+00 1.309366e+00 2.117356e+00 1.725470e+00 2.659924e+00 2.193041e+00 2.691470e+00 2.617369e+00 2.956867e+00 3.758662e+00 2.911271e+00 1.284076e-03 1.599593e-01 3.584115e-01 2.509538e-01 3.965532e-01 4.419421e-01 5.604518e-01 4.601940e-01 4.201706e-01 4.194798e-01 4.314823e-01 5.551672e-01 6.204973e-01 3.095820e-04
<GCONST> 9.158037e+01
<MIXTURE> 7 1.126455e-01
<MEAN> 39
 1.608810e+00 1.259499e+01 -1.427955e+00 -2.367280e+00 -3.643846e+00 -4.775983e+00 -4.800483e-01 2.485314e+00 9.026994e-01 2.060662e+00 1.307928e-01 1.527804e+00 7.150730e-01 -2.448039e-01 1.267873e+00 -5.566807e-01 3.930926e-01 -7.749524e-01 -4.532455e-01 -8.420498e-01 -6.484589e-01 -7.256402e-01 -4.535177e-01 -4.195745e-01 8.193189e-02 2.292866e-02 -1.283769e-01 -5.603855e-01 9.183496e-03 -3.813100e-02 -1.004713e-01 1.253698e-01 -1.145870e-01 -2.368488e-01 -2.333533e-01 -2.724980e-01 -1.617811e-01 -1.113230e-01 1.127260e-03
<VARIANCE> 39
 1.296992e+01 2.979354e+01 2.220260e+01 3.125149e+01 2.208778e+01 2.628777e+01 4.856182e+01 2.931607e+01 2.944332e+01 3.534015e+01 4.131419e+01 4.996562e+01 1.428238e-02 7.823443e-01 1.922763e+00 1.309460e+00 2.117638e+00 1.725575e+00 2.659997e+00 2.193056e+00 2.691638e+00 2.617521e+00 2.956974e+00 3.758802e+00 2.911376e+00 1.284240e-03 1.599828e-01 3.584890e-01 2.509697e-01 3.965990e-01 4.420132e-01 5.604901e-01 4.602243e-01 4.202052e-01 4.195042e-01 4.314958e-01 5.552040e-01 6.205041e-01 3.097068e-04
<GCONST> 9.158298e+01
<MIXTURE> 8 1.060834e-01
<MEAN> 39
 -6.992574e-02 1.297083e+01 -4.138027e+00 -1.376629e+00 -6.667567e+00 -6.132904e+00 -8.041520e-01 -7.218999e-01 -2.659833e+00 -2.635796e-01 -5.166343e+00 4.304191e+00 8.203295e-01 -9.770336e-01 -7.017900e-01 -1.020327e+00 -3.842331e-01 -9.233333e-01 -1.231657e+00 -1.649143e+00 -1.642087e+00 -1.536421e+00 -1.689225e+00 -1.503532e+00 -7.320650e-01 3.341532e-02 1.069704e-01 -1.518166e-01 1.748592e-01 1.011343e-01 2.005716e-01 1.269946e-01 8.303868e-02 1.056062e-01 2.304255e-01 2.050135e-01 2.608328e-01 4.265880e-02 -7.845669e-03
<VARIANCE> 39
 1.503472e+01 2.589767e+01 1.732373e+01 1.404310e+01 1.093334e+01 1.448475e+01 1.944842e+01 2.830045e+01 1.857172e+01 2.334596e+01 1.894148e+01 2.045014e+01 7.128731e-03 3.587107e-01 4.802986e-01 6.168999e-01 9.649466e-01 1.045227e+00 1.029392e+00 9.495407e-01 1.305914e+00 1.066911e+00 1.354372e+00 1.788963e+00 2.107653e+00 2.795948e-04 1.154078e-01 1.457084e-01 1.340760e-01 1.444644e-01 1.834661e-01 2.109264e-01 2.525284e-01 2.600853e-01 2.656197e-01 2.835859e-01 3.070648e-01 2.708355e-01 6.577316e-05
<GCONST> 6.441682e+01
<MIXTURE> 9 4.940269e-02
<MEAN> 39
 -1.089466e+00 1.006676e+01 -5.468164e+00 -3.885305e+00 -6.192805e+00 -5.738353e+00 -9.276339e-01 -1.127002e+00 -4.421967e-01 4.852863e-01 1.693713e+00 4.974816e+00 8.453763e-01 -1.222449e+00 -1.828837e-01 -3.518625e-01 9.624787e-03 -3.994043e-01 -5.747010e-01 -1.090784e+00 -1.316249e+00 -8.978304e-01 -3.644878e-01 8.122358e-01 1.338787e+00 4.500021e-02 7.257108e-02 -3.884419e-01 4.950423e-01 5.646459e-01 5.630334e-01 5.691242e-01 2.313066e-01 4.261045e-01 3.247697e-01 2.881984e-01 1.048224e-01 -9.292319e-02 -2.902375e-02
<VARIANCE> 39
 1.445926e+01 4.163800e+01 2.183554e+01 1.442478e+01 2.667923e+01 2.910459e+01 3.089959e+01 2.398829e+01 3.068220e+01 4.215780e+01 5.101395e+01 8.661868e+01 7.658792e-03 6.463606e-01 6.359338e-01 8.720154e-01 1.250095e+00 1.328730e+00 1.378730e+00 1.634736e+00 2.270569e+00 3.278962e+00 3.782732e+00 7.460195e+00 8.280349e+00 4.561127e-04 1.600973e-01 3.581904e-01 2.589074e-01 2.259851e-01 4.447269e-01 4.995584e-01 3.732292e-01 3.035355e-01 3.257389e-01 5.336730e-01 5.078244e-01 7.828974e-01 4.103455e-04
<GCONST> 8.799282e+01
<MIXTURE> 10 2.424322e-01
<MEAN> 39
 -1.266144e+00 1.459672e+01 1.184004e+00 -2.749594e+00 -5.084638e+00 -5.163106e+00 -9.979324e+00 8.955898e-01 -4.406607e-01 -3.306126e+00 4.700110e+00 -2.926921e+00 8.105444e-01 -3.646556e-01 1.111689e+00 -3.407628e-01 6.521909e-01 -4.609584e-01 4.077655e-02 -7.237675e-01 -1.318186e-01 -5.217475e-01 -6.394086e-01 4.594269e-01 -6.538584e-01 1.221694e-02 1.239509e-01 -4.384689e-01 6.959978e-02 -1.683375e-01 -6.020156e-02 1.907314e-01 2.583862e-01 3.221422e-03 -1.135637e-02 2.137474e-01 -2.967047e-01 8.830623e-02 -2.445363e-04
<VARIANCE> 39
 7.942507e+00 2.759525e+01 1.355219e+01 2.632759e+01 1.975491e+01 2.400169e+01 2.195862e+01 2.300838e+01 2.640699e+01 2.903033e+01 1.940437e+01 1.845265e+01 5.822402e-03 4.677120e-01 9.864538e-01 8.739145e-01 1.589561e+00 1.099254e+00 1.421501e+00 1.424647e+00 1.577513e+00 1.679328e+00 1.787071e+00 1.369550e+00 1.430667e+00 3.016888e-04 6.229996e-02 1.556822e-01 1.549713e-01 2.726028e-01 2.604592e-01 2.522472e-01 2.298477e-01 2.938162e-01 2.328708e-01 2.990003e-01 2.455072e-01 2.575156e-01 3.805976e-05
<GCONST> 6.836434e+01
<STATE> 3
<NUMMIXES> 10
<MIXTURE> 1 1.185833e-01
<MEAN> 39
 -2.296501e+00 1.085566e+01 -5.895084e+00 -3.222746e+00 -8.645174e+00 -8.651691e+00 -5.543846e+00 -4.777491e+00 -3.181972e+00 -2.296286e+00 -2.826344e+00 2.688300e+00 8.780323e-01 -7.517780e-02 1.175716e-01 -1.154587e-02 3.445075e-01 -2.432800e-02 1.260902e-01 -3.010943e-01 -3.488740e-01 -5.017072e-02 -1.329699e-01 1.037447e-01 1.830776e-01 1.303639e-02 2.651515e-01 1.426071e-01 3.123825e-01 1.654352e-01 4.412164e-01 3.776717e-01 5.100504e-01 5.476444e-01 3.970670e-01 3.369600e-01 2.820750e-01 8.221681e-02 -4.848687e-03
<VARIANCE> 39
 1.825184e+01 3.240508e+01 2.460159e+01 1.982623e+01 1.844853e+01 2.597844e+01 3.163120e+01 2.796355e+01 5.054221e+01 4.955223e+01 8.210699e+01 9.214195e+01 7.361265e-03 3.542759e-01 6.621113e-01 9.052272e-01 1.074159e+00 1.404374e+00 1.223425e+00 1.362999e+00 1.581523e+00 1.262524e+00 1.983831e+00 1.728370e+00 2.306974e+00 1.514200e-04 7.828405e-02 1.189322e-01 1.476347e-01 2.253569e-01 1.842480e-01 2.403102e-01 2.415359e-01 2.819460e-01 3.437744e-01 4.089188e-01 5.242006e-01 4.985679e-01 3.763101e-05
<GCONST> 7.501430e+01
<MIXTURE> 2 1.073183e-01
<MEAN> 39
 -1.531344e+00 1.344284e+01 -1.456434e+00 -1.902380e+00 -5.255455e+00 -4.763189e+00 -6.966048e+00 1.499008e-01 -3.887476e+00 -1.756756e+00 6.190532e-01 -3.627495e-01 8.760719e-01 -2.731950e-02 2.232544e-01 1.134238e-01 3.718444e-01 1.222428e-01 8.544590e-02 -1.529567e-02 2.381124e-02 1.011748e-01 1.976041e-03 3.569230e-03 1.566977e-01 1.336421e-02 1.237164e-01 -9.260852e-02 3.721150e-02 -5.503093e-02 7.306097e-02 -3.375061e-03 1.189683e-01 9.843829e-02 1.905590e-01 1.119022e-01 1.532076e-02 -7.233876e-03 -4.537316e-03
<VARIANCE> 39
 8.698322e+00 4.074193e+01 1.262518e+01 1.220205e+01 1.805826e+01 2.646327e+01 3.478129e+01 2.600226e+01 2.534867e+01 2.923808e+01 3.564564e+01 3.395476e+01 5.115419e-03 2.458901e-01 3.919053e-01 4.838750e-01 5.536465e-01 6.063833e-01 6.972066e-01 8.761041e-01 9.020657e-01 9.804229e-01 8.681384e-01 1.069581e+00 9.189562e-01 8.811769e-05 5.317675e-02 6.841573e-02 8.592292e-02 9.724531e-02 1.282534e-01 1.274618e-01 1.553836e-01 1.792270e-01 1.800619e-01 1.465106e-01 1.750888e-01 1.706142e-01 1.777627e-05
<GCONST> 5.354527e+01
<MIXTURE> 3 7.984199e-02
<MEAN> 39
 -7.471040e-01 1.024250e+01 -1.195761e+00 -2.489437e-01 -2.764333e+00 -3.310864e+00 -5.314076e+00 -1.426832e-02 -2.717926e+00 -1.322863e+00 1.613020e+00 1.220400e+00 9.051852e-01 1.260947e-01 2.408767e-01 1.254692e-01 2.706799e-01 1.441750e-01 1.866074e-01 1.513807e-01 1.754839e-01 1.404591e-01 6.442924e-02 1.048815e-01 8.581930e-02 1.204717e-03 -1.611006e-02 -4.528281e-02 -3.339874e-02 -6.183737e-02 -4.075292e-02 -5.999556e-02 -1.671311e-02 -3.172270e-02 3.443591e-02 1.070619e-02 -2.764655e-02 -5.730669e-02 -1.422791e-03
<VARIANCE> 39
 8.383880e+00 3.154419e+01 7.408609e+00 1.474638e+01 1.204393e+01 1.742472e+01 2.565237e+01 1.789720e+01 1.567638e+01 2.336791e+01 3.795476e+01 4.030883e+01 5.234684e-03 1.156223e-01 1.639915e-01 2.428836e-01 2.878775e-01 3.810994e-01 3.900740e-01 3.878055e-01 3.918596e-01 4.233524e-01 4.088334e-01 4.546255e-01 4.577239e-01 4.527172e-05 1.588675e-02 3.020249e-02 4.038492e-02 5.437075e-02 6.182581e-02 5.758113e-02 7.235198e-02 5.781485e-02 6.941009e-02 7.736196e-02 8.025791e-02 8.707933e-02 3.813852e-06
<GCONST> 3.012038e+01
<MIXTURE> 4 6.011635e-02
<MEAN> 39
 -9.930552e-01 1.290379e+01 -2.554927e+00 -1.565318e+00 -4.439848e+00 -6.181105e+00 -6.691443e+00 -3.687170e-02 -4.264104e+00 -1.084086e+00 -1.445010e+00 1.314750e+00 8.736528e-01 -5.093231e-02 -6.196926e-02 -1.807263e-01 -9.971227e-02 -4.490925e-02 -1.361518e-01 -8.919831e-02 -2.433593e-01 -9.289559e-03 -1.575436e-01 -1.073460e-01 -1.688469e-01 1.334910e-03 2.238950e-03 -8.125708e-03 1.725673e-02 -4.411065e-02 -1.081666e-02 -1.430804e-02 4.578359e-02 2.041841e-02 4.699717e-02 1.416034e-02 3.227314e-02 -4.570866e-02 -1.232684e-03
<VARIANCE> 39
 6.434321e+00 3.101802e+01 1.138029e+01 1.339243e+01 1.608164e+01 2.165580e+01 2.668958e+01 2.235438e+01 2.677781e+01 2.846398e+01 3.953002e+01 3.738160e+01 7.871324e-03 6.351908e-02 1.407437e-01 1.378285e-01 2.171855e-01 2.844951e-01 3.270680e-01 2.991110e-01 3.290423e-01 3.848209e-01 2.922660e-01 2.807401e-01 3.532719e-01 3.754082e-05 1.212109e-02 1.838234e-02 2.686459e-02 3.616864e-02 5.038952e-02 5.713876e-02 5.172501e-02 6.218766e-02 7.860439e-02 5.861645e-02 5.054931e-02 7.021376e-02 3.730628e-06
<GCONST> 2.527371e+01
<MIXTURE> 5 7.984141e-02
<MEAN> 39
 -7.471405e-01 1.024232e+01 -1.195813e+00 -2.489116e-01 -2.764309e+00 -3.310808e+00 -5.313922e+00 -1.428429e-02 -2.717915e+00 -1.322747e+00 1.612895e+00 1.220604e+00 9.051877e-01 1.260999e-01 2.408734e-01 1.254796e-01 2.706794e-01 1.441810e-01 1.866050e-01 1.513868e-01 1.754878e-01 1.404672e-01 6.443395e-02 1.048871e-01 8.582186e-02 1.204621e-03 -1.611117e-02 -4.528030e-02 -3.339829e-02 -6.183630e-02 -4.075347e-02 -5.999532e-02 -1.671337e-02 -3.172170e-02 3.443605e-02 1.070466e-02 -2.764582e-02 -5.730805e-02 -1.422787e-03
<VARIANCE> 39
 8.384109e+00 3.154447e+01 7.408589e+00 1.474618e+01 1.204375e+01 1.742459e+01 2.565226e+01 1.789702e+01 1.567635e+01 2.336716e+01 3.795465e+01 4.030998e+01 5.234611e-03 1.156210e-01 1.639898e-01 2.428847e-01 2.878752e-01 3.811003e-01 3.900738e-01 3.877987e-01 3.918563e-01 4.233481e-01 4.088277e-01 4.546202e-01 4.577180e-01 4.527051e-05 1.588643e-02 3.020187e-02 4.038438e-02 5.436966e-02 6.182455e-02 5.758047e-02 7.235084e-02 5.781414e-02 6.940874e-02 7.736044e-02 8.025616e-02 8.707798e-02 3.813718e-06
<GCONST> 3.011998e+01
<MIXTURE> 6 6.011677e-02
<MEAN> 39
 -9.930700e-01 1.290367e+01 -2.554957e+00 -1.565314e+00 -4.439856e+00 -6.181063e+00 -6.691396e+00 -3.691718e-02 -4.264090e+00 -1.084138e+00 -1.445057e+00 1.314742e+00 8.736534e-01 -5.093297e-02 -6.197344e-02 -1.807293e-01 -9.971432e-02 -4.491368e-02 -1.361562e-01 -8.920479e-02 -2.433610e-01 -9.292223e-03 -1.575422e-01 -1.073470e-01 -1.688536e-01 1.334854e-03 2.239498e-03 -8.124206e-03 1.725810e-02 -4.410908e-02 -1.081541e-02 -1.430615e-02 4.578480e-02 2.042096e-02 4.699763e-02 1.416158e-02 3.227399e-02 -4.570623e-02 -1.232680e-03
<VARIANCE> 39
 6.434371e+00 3.101850e+01 1.138021e+01 1.339252e+01 1.608156e+01 2.165577e+01 2.668967e+01 2.235416e+01 2.677776e+01 2.846370e+01 3.952972e+01 3.738132e+01 7.871444e-03 6.351937e-02 1.407446e-01 1.378298e-01 2.171861e-01 2.844954e-01 3.270694e-01 2.991115e-01 3.290424e-01 3.848212e-01 2.922652e-01 2.807401e-01 3.532687e-01 3.754082e-05 1.212115e-02 1.838235e-02 2.686463e-02 3.616874e-02 5.038948e-02 5.713895e-02 5.172510e-02 6.218765e-02 7.860458e-02 5.861657e-02 5.054917e-02 7.021301e-02 3.730628e-06
<GCONST> 2.527373e+01
<MIXTURE> 7 6.011645e-02
<MEAN> 39
 -9.929940e-01 1.290348e+01 -2.555095e+00 -1.565207e+00 -4.439713e+00 -6.181074e+00 -6.691108e+00 -3.690597e-02 -4.264155e+00 -1.083970e+00 -1.445361e+00 1.315101e+00 8.736554e-01 -5.092759e-02 -6.198913e-02 -1.807301e-01 -9.971944e-02 -4.492252e-02 -1.361587e-01 -8.920193e-02 -2.433640e-01 -9.288128e-03 -1.575381e-01 -1.073457e-01 -1.688516e-01 1.334602e-03 2.235927e-03 -8.124135e-03 1.725462e-02 -4.411075e-02 -1.082065e-02 -1.431164e-02 4.577799e-02 2.041514e-02 4.699568e-02 1.415498e-02 3.227179e-02 -4.571629e-02 -1.232680e-03
<VARIANCE> 39
 6.434403e+00 3.101831e+01 1.138000e+01 1.339201e+01 1.608126e+01 2.165597e+01 2.668946e+01 2.235390e+01 2.677754e+01 2.846221e+01 3.952961e+01 3.738153e+01 7.871407e-03 6.351747e-02 1.407416e-01 1.378291e-01 2.171832e-01 2.844901e-01 3.270636e-01 2.991087e-01 3.290326e-01 3.848099e-01 2.922578e-01 2.807331e-01 3.532597e-01 3.754082e-05 1.212072e-02 1.838174e-02 2.686389e-02 3.616756e-02 5.038844e-02 5.713665e-02 5.172396e-02 6.218611e-02 7.860140e-02 5.861442e-02 5.054756e-02 7.021111e-02 3.730628e-06
<GCONST> 2.527295e+01
<MIXTURE> 8 6.823451e-02
<MEAN> 39
 -1.271657e+00 9.844601e+00 -1.809117e+00 -5.561116e-01 -3.632404e+00 -3.831247e+00 -2.005962e+00 1.540326e-01 -1.168005e+00 -1.879303e-01 -1.598541e+00 4.558856e+00 9.020460e-01 -3.286582e-01 -4.465176e-01 -4.753849e-01 -3.117318e-01 -6.656373e-01 -7.978876e-01 -8.640832e-01 -6.732202e-01 -5.257689e-01 -3.817588e-01 -3.435813e-01 -4.478694e-01 1.124848e-02 -3.089342e-02 -1.413980e-01 -1.251827e-01 -2.145081e-01 -1.420317e-01 -1.071443e-01 -4.764461e-02 -1.184496e-01 -1.657973e-01 -1.197902e-01 -1.050625e-01 -1.712994e-01 -2.875988e-03
<VARIANCE> 39
 1.113854e+01 4.262331e+01 6.099226e+00 1.492784e+01 1.306417e+01 2.098613e+01 2.027441e+01 1.584942e+01 1.463131e+01 2.133780e+01 3.412328e+01 3.874567e+01 5.143888e-03 2.196596e-01 2.373117e-01 2.924876e-01 3.787284e-01 5.434375e-01 6.463491e-01 7.109112e-01 8.712031e-01 5.977218e-01 6.251239e-01 1.178307e+00 1.120605e+00 1.076247e-04 3.595501e-02 4.522444e-02 6.204753e-02 1.007484e-01 9.393609e-02 1.133384e-01 1.327604e-01 1.222046e-01 1.243146e-01 1.043490e-01 1.780653e-01 1.519189e-01 1.312503e-05
<GCONST> 4.551898e+01
<MIXTURE> 9 1.073171e-01
<MEAN> 39
 -1.531355e+00 1.344278e+01 -1.456483e+00 -1.902385e+00 -5.255474e+00 -4.763220e+00 -6.966043e+00 1.498589e-01 -3.887538e+00 -1.756742e+00 6.189763e-01 -3.627328e-01 8.760726e-01 -2.731596e-02 2.232490e-01 1.134192e-01 3.718433e-01 1.222424e-01 8.544476e-02 -1.529734e-02 2.380403e-02 1.011641e-01 1.968872e-03 3.562532e-03 1.566910e-01 1.336418e-02 1.237172e-01 -9.260477e-02 3.721607e-02 -5.502833e-02 7.306460e-02 -3.370423e-03 1.189729e-01 9.844480e-02 1.905659e-01 1.119045e-01 1.532680e-02 -7.231652e-03 -4.537334e-03
<VARIANCE> 39
 8.698310e+00 4.074213e+01 1.262511e+01 1.220204e+01 1.805800e+01 2.646322e+01 3.478128e+01 2.600228e+01 2.534853e+01 2.923769e+01 3.564566e+01 3.395458e+01 5.115413e-03 2.458893e-01 3.919075e-01 4.838725e-01 5.536439e-01 6.063841e-01 6.971999e-01 8.761057e-01 9.020596e-01 9.804147e-01 8.681310e-01 1.069577e+00 9.189519e-01 8.811702e-05 5.317637e-02 6.841598e-02 8.592235e-02 9.724433e-02 1.282524e-01 1.274621e-01 1.553828e-01 1.792271e-01 1.800602e-01 1.465098e-01 1.750886e-01 1.706143e-01 1.777621e-05
<GCONST> 5.354512e+01
<MIXTURE> 10 2.585087e-01
<MEAN> 39
 -2.485549e+00 1.330811e+01 -4.805628e-01 -2.036542e+00 -3.492700e+00 -4.660339e+00 -6.409824e+00 -1.245607e-01 -9.718341e-01 -3.203701e+00 3.316396e+00 -1.049391e+00 8.973337e-01 1.254616e-02 1.161082e-02 -5.259412e-03 -9.465014e-02 6.963934e-02 -3.519085e-02 4.444395e-02 5.355983e-03 3.631316e-02 2.640783e-02 -6.526516e-03 9.601928e-03 -1.076266e-04 1.662670e-02 -2.814622e-02 1.187872e-02 -2.921395e-02 5.815928e-03 -5.385332e-03 9.011186e-03 8.543013e-03 7.675590e-03 2.281245e-02 -1.168421e-02 1.418215e-02 -9.353533e-04
<VARIANCE> 39
 7.260080e+00 5.147307e+01 8.975799e+00 7.849724e+00 9.106799e+00 1.499695e+01 2.536251e+01 1.243671e+01 1.544630e+01 2.090005e+01 2.497690e+01 2.299270e+01 6.143161e-03 5.060570e-02 7.585134e-02 9.262052e-02 1.214972e-01 1.269999e-01 1.394568e-01 1.602327e-01 1.587171e-01 1.862076e-01 1.969381e-01 1.311715e-01 1.569457e-01 3.754082e-05 6.993817e-03 1.446354e-02 1.602850e-02 1.932330e-02 2.441696e-02 2.316364e-02 2.458730e-02 2.778326e-02 3.336950e-02 3.428781e-02 2.321872e-02 2.900134e-02 3.730628e-06
<GCONST> 5.809843e+00
<STATE> 4
<NUMMIXES> 10
<MIXTURE> 1 4.835397e-02
<MEAN> 39
 -2.053816e+00 1.137648e+01 -4.700675e+00 -2.141384e+00 -7.255030e+00 -6.408821e+00 -2.433872e+00 -1.951777e+00 1.045980e+00 1.493849e-01 3.369946e+00 6.469458e+00 8.774840e-01 3.449340e-01 6.124505e-01 4.198142e-01 7.763887e-01 5.776574e-01 7.800070e-01 8.308501e-01 6.956593e-01 7.259908e-01 5.376357e-01 7.114711e-01 8.026422e-02 8.309857e-03 1.067430e-01 -8.717233e-02 5.346148e-02 -9.310948e-02 1.857006e-01 6.775804e-03 1.217899e-01 6.365271e-02 6.722003e-02 3.248146e-02 -1.255016e-01 -2.565009e-01 -3.146666e-03
<VARIANCE> 39
 2.091352e+01 3.155067e+01 3.058324e+01 2.424409e+01 2.832368e+01 3.502111e+01 2.646544e+01 3.375158e+01 5.654652e+01 8.918633e+01 8.460313e+01 1.028567e+02 1.002321e-02 4.200523e-01 1.064614e+00 1.377228e+00 1.199187e+00 1.851483e+00 1.929547e+00 1.677544e+00 1.711724e+00 1.888366e+00 2.199901e+00 1.866236e+00 2.840788e+00 1.617609e-04 6.328171e-02 1.132213e-01 1.848296e-01 2.270508e-01 2.644279e-01 2.163637e-01 2.292533e-01 2.959730e-01 2.980207e-01 3.350413e-01 3.786101e-01 3.509398e-01 2.904135e-05
<GCONST> 7.942425e+01
<MIXTURE> 2 7.716067e-02
<MEAN> 39
 -1.368873e+00 1.151712e+01 -6.451948e+00 -2.973018e+00 -9.532993e+00 -8.791423e+00 -4.941363e+00 -4.231832e+00 -5.313643e+00 -4.393076e+00 -6.785945e+00 6.022881e-01 8.801590e-01 2.324247e-01 2.844242e-01 2.863116e-01 3.889361e-01 4.465324e-01 5.267308e-01 4.800529e-01 4.537458e-01 5.225920e-01 3.614109e-01 4.046196e-01 1.624775e-01 7.771188e-06 1.350423e-01 1.767462e-01 2.857853e-01 2.505798e-01 3.941613e-01 3.025441e-01 3.854196e-01 3.454221e-01 3.390528e-01 3.166122e-01 2.512433e-01 1.650264e-01 -1.460625e-03
<VARIANCE> 39
 1.480961e+01 2.403712e+01 1.247554e+01 1.515876e+01 1.276272e+01 2.026435e+01 1.703563e+01 2.510354e+01 2.086491e+01 2.526806e+01 2.121317e+01 3.315869e+01 6.218252e-03 1.338204e-01 2.101103e-01 2.795488e-01 4.853824e-01 4.871644e-01 5.521166e-01 5.835664e-01 5.339157e-01 5.536188e-01 5.885549e-01 5.694382e-01 5.909896e-01 3.754082e-05 1.787327e-02 4.290475e-02 5.450017e-02 7.691982e-02 8.130551e-02 1.030269e-01 1.001761e-01 1.142606e-01 1.175862e-01 1.129785e-01 1.342664e-01 1.251822e-01 4.273668e-06
<GCONST> 3.903260e+01
<MIXTURE> 3 1.274913e-01
<MEAN> 39
 6.215887e-01 1.425735e+01 -4.109315e+00 7.519070e-01 -5.726206e+00 -5.683093e+00 -2.139205e+00 -1.530748e+00 -1.844510e+00 -9.058296e-01 -4.177504e+00 2.776911e+00 8.742813e-01 2.594569e-01 3.274136e-01 3.511620e-01 4.605001e-01 5.268635e-01 3.973276e-01 5.898435e-01 3.945010e-01 5.277810e-01 5.248373e-01 4.167897e-01 2.405460e-01 -2.609275e-04 -8.196355e-02 -1.740609e-01 -1.334445e-01 -2.381936e-01 -1.231937e-01 -2.197181e-01 -1.269352e-01 -1.782266e-01 -1.680495e-01 -1.319328e-01 -9.166756e-02 -1.734999e-01 -1.136471e-03
<VARIANCE> 39
 1.537170e+01 2.193843e+01 1.456719e+01 1.509361e+01 1.441479e+01 2.067665e+01 1.739360e+01 2.830457e+01 2.094261e+01 2.595151e+01 3.232122e+01 4.142452e+01 6.824734e-03 1.377393e-01 2.603382e-01 3.271044e-01 4.326918e-01 5.661553e-01 7.994190e-01 6.837188e-01 7.757910e-01 6.565316e-01 7.325466e-01 6.655784e-01 8.527576e-01 3.754082e-05 2.573789e-02 4.617275e-02 7.969242e-02 9.597190e-02 1.144105e-01 1.400820e-01 1.387629e-01 1.385202e-01 1.346549e-01 1.463430e-01 1.390691e-01 1.375339e-01 3.949920e-06
<GCONST> 4.508016e+01
<MIXTURE> 4 6.978990e-02
<MEAN> 39
 -5.887519e-01 1.223067e+01 -5.618536e+00 -1.679526e+00 -8.023945e+00 -8.536149e+00 -4.238997e+00 -3.864656e+00 -3.714754e+00 -3.619226e+00 -5.893447e+00 1.060606e+00 8.773367e-01 -1.552646e-01 -2.790345e-01 -4.965708e-01 -3.919942e-01 -4.811999e-01 -5.137052e-01 -4.825565e-01 -5.211032e-01 -2.858975e-01 -4.112834e-01 -3.473462e-01 -4.070457e-01 9.724509e-05 4.350121e-02 7.716171e-02 1.261369e-01 5.965989e-02 1.886606e-01 1.716917e-01 1.762940e-01 1.814549e-01 1.763849e-01 1.064356e-01 1.421531e-01 8.687896e-02 -1.527071e-03
<VARIANCE> 39
 1.528562e+01 2.805663e+01 1.537640e+01 1.586343e+01 1.829802e+01 2.333659e+01 2.139126e+01 2.651674e+01 2.377825e+01 3.087546e+01 3.126050e+01 3.929390e+01 6.486197e-03 1.189252e-01 2.402281e-01 3.108413e-01 5.095469e-01 5.118446e-01 6.373503e-01 6.753473e-01 5.426254e-01 7.073613e-01 6.363896e-01 6.970432e-01 6.716058e-01 4.234473e-05 1.948290e-02 3.939563e-02 6.408821e-02 7.724575e-02 9.011403e-02 1.046572e-01 1.408503e-01 1.228812e-01 1.188344e-01 1.182482e-01 1.084236e-01 1.203962e-01 4.212051e-06
<GCONST> 4.297573e+01
<MIXTURE> 5 1.274912e-01
<MEAN> 39
 6.215919e-01 1.425736e+01 -4.109332e+00 7.519051e-01 -5.726187e+00 -5.683095e+00 -2.139215e+00 -1.530768e+00 -1.844501e+00 -9.058008e-01 -4.177472e+00 2.776937e+00 8.742815e-01 2.594560e-01 3.274122e-01 3.511599e-01 4.604991e-01 5.268604e-01 3.973245e-01 5.898407e-01 3.944983e-01 5.277805e-01 5.248349e-01 4.167874e-01 2.405437e-01 -2.609296e-04 -8.196343e-02 -1.740609e-01 -1.334433e-01 -2.381931e-01 -1.231940e-01 -2.197174e-01 -1.269343e-01 -1.782244e-01 -1.680486e-01 -1.319334e-01 -9.166799e-02 -1.734993e-01 -1.136472e-03
<VARIANCE> 39
 1.537171e+01 2.193843e+01 1.456730e+01 1.509362e+01 1.441486e+01 2.067668e+01 1.739366e+01 2.830454e+01 2.094266e+01 2.595152e+01 3.232151e+01 4.142485e+01 6.824730e-03 1.377389e-01 2.603388e-01 3.271049e-01 4.326930e-01 5.661572e-01 7.994203e-01 6.837214e-01 7.757910e-01 6.565318e-01 7.325460e-01 6.655802e-01 8.527629e-01 3.754082e-05 2.573791e-02 4.617275e-02 7.969227e-02 9.597185e-02 1.144102e-01 1.400822e-01 1.387631e-01 1.385195e-01 1.346549e-01 1.463426e-01 1.390688e-01 1.375338e-01 3.949916e-06
<GCONST> 4.508020e+01
<MIXTURE> 6 6.979167e-02
<MEAN> 39
 -5.888324e-01 1.223061e+01 -5.618588e+00 -1.679660e+00 -8.024094e+00 -8.536221e+00 -4.239160e+00 -3.864677e+00 -3.714881e+00 -3.619380e+00 -5.893555e+00 1.060545e+00 8.773368e-01 -1.552753e-01 -2.790497e-01 -4.965890e-01 -3.920280e-01 -4.812256e-01 -5.137296e-01 -4.825823e-01 -5.211262e-01 -2.859301e-01 -4.113084e-01 -3.473631e-01 -4.070555e-01 9.741324e-05 4.350775e-02 7.717180e-02 1.261476e-01 5.967587e-02 1.886773e-01 1.717108e-01 1.763121e-01 1.814688e-01 1.763993e-01 1.064501e-01 1.421640e-01 8.688502e-02 -1.527100e-03
<VARIANCE> 39
 1.528548e+01 2.805696e+01 1.537658e+01 1.586347e+01 1.829774e+01 2.333688e+01 2.139143e+01 2.651660e+01 2.377786e+01 3.087544e+01 3.126078e+01 3.929404e+01 6.486200e-03 1.189277e-01 2.402290e-01 3.108387e-01 5.095567e-01 5.118548e-01 6.373532e-01 6.753450e-01 5.426255e-01 7.073562e-01 6.363884e-01 6.970513e-01 6.716099e-01 4.234567e-05 1.948323e-02 3.939629e-02 6.408841e-02 7.724889e-02 9.011557e-02 1.046596e-01 1.408503e-01 1.228837e-01 1.188344e-01 1.182514e-01 1.084249e-01 1.203949e-01 4.212107e-06
<GCONST> 4.297600e+01
<MIXTURE> 7 6.979476e-02
<MEAN> 39
 -5.888724e-01 1.223056e+01 -5.618614e+00 -1.679728e+00 -8.024174e+00 -8.536248e+00 -4.239230e+00 -3.864669e+00 -3.714944e+00 -3.619482e+00 -5.893638e+00 1.060459e+00 8.773364e-01 -1.552794e-01 -2.790557e-01 -4.965953e-01 -3.920443e-01 -4.812352e-01 -5.137393e-01 -4.825903e-01 -5.211341e-01 -2.859468e-01 -4.113212e-01 -3.473692e-01 -4.070587e-01 9.742916e-05 4.351101e-02 7.717703e-02 1.261529e-01 5.968425e-02 1.886841e-01 1.717191e-01 1.763209e-01 1.814745e-01 1.764065e-01 1.064577e-01 1.421690e-01 8.688930e-02 -1.527084e-03
<VARIANCE> 39
 1.528540e+01 2.805709e+01 1.537661e+01 1.586346e+01 1.829749e+01 2.333680e+01 2.139142e+01 2.651650e+01 2.377771e+01 3.087545e+01 3.126043e+01 3.929375e+01 6.486238e-03 1.189271e-01 2.402262e-01 3.108349e-01 5.095503e-01 5.118523e-01 6.373445e-01 6.753372e-01 5.426209e-01 7.073462e-01 6.363857e-01 6.970478e-01 6.716070e-01 4.234528e-05 1.948313e-02 3.939651e-02 6.408823e-02 7.724939e-02 9.011523e-02 1.046595e-01 1.408482e-01 1.228841e-01 1.188334e-01 1.182521e-01 1.084243e-01 1.203930e-01 4.212040e-06
<GCONST> 4.297579e+01
<MIXTURE> 8 1.076641e-01
<MEAN> 39
 -1.521189e-01 1.402875e+01 -3.768887e+00 4.280947e-01 -5.457835e+00 -6.092520e+00 -1.423172e+00 -7.774650e-01 -1.912522e+00 -7.716040e-01 -4.762965e+00 2.423761e+00 8.789203e-01 -1.567048e-01 -3.446062e-01 -4.758693e-01 -4.913684e-01 -4.881713e-01 -6.001266e-01 -3.191160e-01 -5.669301e-01 -4.437017e-01 -3.824103e-01 -4.096820e-01 -4.424963e-01 -1.186006e-04 -1.270499e-01 -1.840542e-01 -2.256283e-01 -2.948132e-01 -2.647647e-01 -2.932195e-01 -2.632327e-01 -2.765435e-01 -2.164007e-01 -2.595825e-01 -1.699918e-01 -2.225799e-01 -9.281797e-04
<VARIANCE> 39
 1.604725e+01 2.273130e+01 9.988809e+00 1.357425e+01 1.164755e+01 2.287101e+01 1.401583e+01 2.282419e+01 2.001441e+01 2.035302e+01 1.868630e+01 2.663890e+01 6.335698e-03 8.265541e-02 1.810842e-01 2.602648e-01 3.411045e-01 4.226159e-01 3.986970e-01 4.306898e-01 4.506132e-01 5.048496e-01 6.146520e-01 4.171489e-01 4.349726e-01 3.754082e-05 1.555315e-02 4.002613e-02 4.490118e-02 5.706510e-02 5.923433e-02 9.758271e-02 9.642725e-02 9.327394e-02 8.109697e-02 7.691626e-02 7.337946e-02 8.417146e-02 3.730628e-06
<GCONST> 3.201032e+01
<MIXTURE> 9 7.715459e-02
<MEAN> 39
 -1.368036e+00 1.151807e+01 -6.451985e+00 -2.972292e+00 -9.531936e+00 -8.790318e+00 -4.940405e+00 -4.231379e+00 -5.312303e+00 -4.392008e+00 -6.785055e+00 6.027766e-01 8.801575e-01 2.325903e-01 2.846291e-01 2.865318e-01 3.892958e-01 4.469413e-01 5.271571e-01 4.804166e-01 4.540201e-01 5.229283e-01 3.617803e-01 4.049881e-01 1.627279e-01 7.452254e-06 1.349851e-01 1.766350e-01 2.856602e-01 2.504393e-01 3.940248e-01 3.023632e-01 3.852647e-01 3.452539e-01 3.388663e-01 3.165001e-01 2.511375e-01 1.649386e-01 -1.460625e-03
<VARIANCE> 39
 1.480951e+01 2.403229e+01 1.247564e+01 1.515813e+01 1.276219e+01 2.026387e+01 1.703456e+01 2.510604e+01 2.086459e+01 2.526731e+01 2.121256e+01 3.315568e+01 6.218848e-03 1.338313e-01 2.101424e-01 2.795551e-01 4.854441e-01 4.871108e-01 5.520101e-01 5.835925e-01 5.339050e-01 5.536171e-01 5.884283e-01 5.693392e-01 5.909879e-01 3.754082e-05 1.787057e-02 4.288991e-02 5.448933e-02 7.690495e-02 8.129904e-02 1.030187e-01 1.001717e-01 1.142585e-01 1.175704e-01 1.129649e-01 1.342575e-01 1.251837e-01 4.273270e-06
<GCONST> 3.903045e+01
<MIXTURE> 10 2.253016e-01
<MEAN> 39
 -1.531872e+00 1.763969e+01 1.525266e+00 -1.561744e+00 -7.368568e+00 -3.339943e+00 -1.196024e+01 -5.216549e-02 4.215179e-01 -5.591042e+00 5.210279e+00 -5.014763e+00 8.551452e-01 -2.833917e-02 4.162662e-02 8.014479e-02 -1.061345e-01 1.556714e-01 -1.691392e-01 1.301276e-01 4.998066e-02 1.948233e-01 6.786558e-02 3.212073e-02 -9.116328e-02 8.137111e-04 1.461640e-03 -9.894167e-02 8.882202e-03 -1.148949e-01 9.901379e-02 -9.288538e-02 7.863690e-02 -4.920392e-02 2.397021e-02 4.805676e-02 -5.730304e-02 7.941870e-02 -1.359093e-03
<VARIANCE> 39
 1.077046e+01 2.533240e+01 1.673726e+01 1.594302e+01 2.210848e+01 2.556909e+01 2.404396e+01 3.003920e+01 2.550597e+01 3.185006e+01 1.721475e+01 1.734367e+01 4.207167e-03 1.189861e-01 2.695754e-01 3.564913e-01 4.617346e-01 3.876559e-01 6.128299e-01 7.517893e-01 7.196549e-01 7.746350e-01 6.653438e-01 5.687558e-01 5.509229e-01 4.002136e-05 2.299597e-02 4.450389e-02 6.646805e-02 7.930207e-02 8.834203e-02 1.247140e-01 1.245683e-01 1.350127e-01 1.745979e-01 1.205643e-01 1.178402e-01 9.082451e-02 4.584021e-06
<GCONST> 4.206090e+01
<STATE> 5
<NUMMIXES> 10
<MIXTURE> 1 4.419817e-02
<MEAN> 39
 -4.313932e+00 1.191728e+01 -5.424396e+00 -5.176739e+00 -6.442679e+00 -4.365706e+00 3.937156e+00 2.639783e+00 1.519498e+01 1.624114e+01 1.229131e+01 9.028349e+00 9.314030e-01 1.839522e-01 1.052136e-01 9.266177e-02 1.129702e-01 6.244708e-02 8.537880e-02 1.092461e-01 2.420418e-01 6.387075e-02 -1.087490e-01 -5.277283e-02 -5.387944e-01 9.776044e-04 8.563325e-05 3.887413e-02 6.457999e-02 9.802524e-04 6.199737e-02 -2.467728e-02 8.264665e-03 -2.705958e-02 -9.265622e-02 3.134555e-02 2.048583e-02 2.383428e-03 -1.376025e-03
<VARIANCE> 39
 8.185663e+00 3.467233e+01 3.552514e+01 9.217546e+00 7.169475e+00 8.897992e+00 1.163633e+01 2.442899e+01 3.280146e+01 5.874623e+00 2.339395e+01 6.537054e+01 5.833553e-03 2.215562e-01 3.226719e-01 6.030518e-01 5.227871e-01 4.357249e-01 3.439036e-01 3.396111e-01 4.661896e-01 5.590159e-01 5.601005e-01 3.070102e-01 6.085159e-01 3.754082e-05 3.955899e-02 3.887826e-02 9.140930e-02 1.059061e-01 6.856140e-02 4.970575e-02 4.926233e-02 5.886757e-02 8.003514e-02 1.052453e-01 4.689627e-02 7.372095e-02 3.730628e-06
<GCONST> 3.422672e+01
<MIXTURE> 2 9.872057e-02
<MEAN> 39
 -1.416088e+00 1.215745e-01 -2.377326e+00 -1.805150e+00 -2.105820e+00 -2.359793e+00 -2.551758e+00 -2.849336e+00 -2.371828e+00 -2.634584e+00 -2.537454e+00 -1.722233e+00 9.657849e-01 1.940663e-01 1.304643e-01 1.639704e-01 1.908237e-01 2.168025e-01 9.606226e-02 2.547435e-01 1.820724e-01 1.871206e-01 8.604378e-02 1.615662e-01 1.170777e-01 -2.730358e-03 8.388830e-02 1.520681e-01 1.739933e-01 1.368936e-01 1.583925e-01 1.511271e-01 1.954143e-01 2.238968e-01 1.728345e-01 1.876493e-01 1.466036e-01 1.477755e-01 -6.970491e-04
<VARIANCE> 39
 3.108833e+00 3.284356e+00 8.513391e+00 6.310331e+00 8.344798e+00 7.357011e+00 1.174815e+01 1.071010e+01 9.195906e+00 9.503635e+00 1.632412e+01 1.073240e+01 8.959692e-04 1.297815e-01 2.659765e-01 4.552285e-01 4.616080e-01 8.339289e-01 5.819431e-01 7.517974e-01 9.088757e-01 6.276760e-01 6.016036e-01 6.772967e-01 5.370764e-01 3.754082e-05 2.405884e-02 4.901272e-02 9.086618e-02 8.074649e-02 1.411924e-01 1.069540e-01 1.316219e-01 1.541132e-01 1.116587e-01 9.391271e-02 1.322544e-01 9.806704e-02 3.730628e-06
<GCONST> 3.019967e+01
<MIXTURE> 3 1.276502e-01
<MEAN> 39
 9.165618e-01 4.871491e+00 -3.192974e-01 2.585295e-01 -8.699062e-01 -1.391181e+00 -5.470480e-01 1.799618e-01 -4.731070e-01 2.269828e-01 -6.180058e-01 1.718167e-01 9.197282e-01 3.742515e-01 1.343874e-02 1.033601e-01 2.306126e-01 2.719472e-01 1.494378e-01 6.649002e-02 -2.962004e-02 2.814833e-01 4.534554e-01 1.326415e-01 3.839649e-02 -6.793438e-03 -2.989785e-02 -9.598633e-02 -1.346817e-01 -9.322445e-02 -1.347311e-01 -1.423392e-01 -1.942177e-01 -1.614205e-01 -1.045543e-01 -1.270151e-01 -7.000950e-02 -6.477395e-02 -1.297976e-03
<VARIANCE> 39
 7.902123e+00 2.243050e+01 8.254651e+00 8.868580e+00 1.164408e+01 1.302118e+01 1.613922e+01 1.066329e+01 1.173240e+01 2.071099e+01 1.584849e+01 9.198844e+00 3.475190e-03 2.908815e-01 4.728794e-01 7.715262e-01 7.477150e-01 8.640102e-01 9.687973e-01 1.263146e+00 1.152962e+00 1.025317e+00 1.096204e+00 1.225738e+00 8.459674e-01 5.878456e-05 5.213657e-02 8.779515e-02 1.273733e-01 1.261154e-01 1.669667e-01 1.529947e-01 2.018238e-01 1.946625e-01 1.727040e-01 1.976009e-01 1.836755e-01 1.462411e-01 4.236512e-06
<GCONST> 4.841772e+01
<MIXTURE> 4 7.801293e-02
<MEAN> 39
 -7.175846e-02 1.359383e+01 -4.498429e+00 -3.405725e-01 -5.891381e+00 -6.494956e+00 -3.879088e+00 -1.256979e+00 -2.017018e+00 -5.012278e-01 -1.922155e+00 2.443550e+00 8.800987e-01 -1.831409e-01 -2.031938e-01 -4.761065e-03 -5.196000e-01 3.559338e-01 -3.334920e-01 2.906557e-01 -3.279433e-02 3.227002e-01 -9.659809e-02 3.219776e-01 -3.613379e-01 -1.287266e-03 -1.963704e-03 -2.151852e-01 1.363744e-01 -3.434824e-01 1.798236e-01 -1.209955e-01 8.443600e-03 -2.588188e-02 -1.786306e-02 -9.417094e-02 1.236822e-02 -1.484239e-01 -2.825675e-03
<VARIANCE> 39
 1.637082e+01 2.890797e+01 1.914181e+01 2.103790e+01 1.967626e+01 3.029614e+01 2.859591e+01 3.325888e+01 2.969776e+01 3.345295e+01 5.559770e+01 6.523726e+01 6.369308e-03 3.539629e-01 5.008743e-01 7.488865e-01 8.095332e-01 1.245531e+00 1.278325e+00 1.372084e+00 1.107227e+00 1.478468e+00 1.376705e+00 1.485415e+00 1.310749e+00 9.594941e-05 5.616205e-02 9.499978e-02 1.883638e-01 1.894463e-01 2.555935e-01 2.669056e-01 3.283512e-01 3.082340e-01 2.731409e-01 2.931848e-01 3.098521e-01 2.894076e-01 1.432045e-05
<GCONST> 6.827020e+01
<MIXTURE> 5 1.276475e-01
<MEAN> 39
 9.165541e-01 4.871458e+00 -3.192728e-01 2.585913e-01 -8.698661e-01 -1.391123e+00 -5.470194e-01 1.799886e-01 -4.730513e-01 2.270482e-01 -6.179972e-01 1.718208e-01 9.197286e-01 3.742474e-01 1.344720e-02 1.033767e-01 2.306082e-01 2.719563e-01 1.494489e-01 6.649021e-02 -2.960547e-02 2.814831e-01 4.534512e-01 1.326433e-01 3.840412e-02 -6.793421e-03 -2.990172e-02 -9.599163e-02 -1.346861e-01 -9.323287e-02 -1.347357e-01 -1.423437e-01 -1.942203e-01 -1.614288e-01 -1.045638e-01 -1.270222e-01 -7.001588e-02 -6.477729e-02 -1.297969e-03
<VARIANCE> 39
 7.902109e+00 2.243024e+01 8.254439e+00 8.868476e+00 1.164391e+01 1.302077e+01 1.613897e+01 1.066310e+01 1.173231e+01 2.071084e+01 1.584858e+01 9.198808e+00 3.475221e-03 2.908777e-01 4.728715e-01 7.715069e-01 7.477029e-01 8.639885e-01 9.687602e-01 1.263123e+00 1.152936e+00 1.025295e+00 1.096197e+00 1.225744e+00 8.459619e-01 5.878422e-05 5.213528e-02 8.779580e-02 1.273723e-01 1.261122e-01 1.669637e-01 1.529911e-01 2.018218e-01 1.946617e-01 1.727009e-01 1.975988e-01 1.836778e-01 1.462374e-01 4.236491e-06
<GCONST> 4.841722e+01
<MIXTURE> 6 7.801197e-02
<MEAN> 39
 -7.176949e-02 1.359368e+01 -4.498356e+00 -3.405715e-01 -5.891346e+00 -6.494829e+00 -3.879039e+00 -1.256973e+00 -2.016816e+00 -5.011562e-01 -1.921957e+00 2.443413e+00 8.800942e-01 -1.831377e-01 -2.031914e-01 -4.780164e-03 -5.195812e-01 3.559217e-01 -3.334705e-01 2.906482e-01 -3.278023e-02 3.226939e-01 -9.657013e-02 3.219681e-01 -3.613295e-01 -1.286609e-03 -1.963343e-03 -2.151792e-01 1.363679e-01 -3.434700e-01 1.798217e-01 -1.209936e-01 8.437128e-03 -2.587960e-02 -1.786322e-02 -9.417138e-02 1.236740e-02 -1.484073e-01 -2.825631e-03
<VARIANCE> 39
 1.637088e+01 2.891126e+01 1.914258e+01 2.103987e+01 1.967709e+01 3.029876e+01 2.859662e+01 3.325939e+01 2.969918e+01 3.345414e+01 5.559947e+01 6.523846e+01 6.370652e-03 3.539651e-01 5.008980e-01 7.489122e-01 8.095650e-01 1.245561e+00 1.278364e+00 1.372090e+00 1.107278e+00 1.478519e+00 1.376733e+00 1.485489e+00 1.310786e+00 9.598492e-05 5.616339e-02 9.500179e-02 1.883666e-01 1.894511e-01 2.556001e-01 2.669119e-01 3.283537e-01 3.082458e-01 2.731441e-01 2.931958e-01 3.098611e-01 2.894263e-01 1.432277e-05
<GCONST> 6.827219e+01
<MIXTURE> 7 7.801197e-02
<MEAN> 39
 -7.177234e-02 1.359385e+01 -4.498466e+00 -3.406169e-01 -5.891421e+00 -6.494998e+00 -3.879112e+00 -1.257033e+00 -2.017043e+00 -5.012510e-01 -1.922144e+00 2.443621e+00 8.801005e-01 -1.831424e-01 -2.031939e-01 -4.753093e-03 -5.196035e-01 3.559389e-01 -3.334943e-01 2.906547e-01 -3.279690e-02 3.226970e-01 -9.660152e-02 3.219766e-01 -3.613355e-01 -1.287433e-03 -1.962046e-03 -2.151860e-01 1.363773e-01 -3.434826e-01 1.798261e-01 -1.209944e-01 8.445937e-03 -2.587975e-02 -1.786254e-02 -9.416936e-02 1.236760e-02 -1.484282e-01 -2.825723e-03
<VARIANCE> 39
 1.637090e+01 2.890705e+01 1.914180e+01 2.103753e+01 1.967618e+01 3.029550e+01 2.859579e+01 3.325897e+01 2.969759e+01 3.345293e+01 5.559814e+01 6.523824e+01 6.368866e-03 3.539638e-01 5.008736e-01 7.488807e-01 8.095272e-01 1.245521e+00 1.278322e+00 1.372087e+00 1.107217e+00 1.478455e+00 1.376705e+00 1.485406e+00 1.310751e+00 9.593910e-05 5.616225e-02 9.499915e-02 1.883631e-01 1.894469e-01 2.555946e-01 2.669045e-01 3.283522e-01 3.082331e-01 2.731403e-01 2.931854e-01 3.098532e-01 2.894077e-01 1.432000e-05
<GCONST> 6.826990e+01
<MIXTURE> 8 8.539967e-02
<MEAN> 39
 -3.755803e-01 4.698794e+00 -2.050233e+00 2.616126e-01 -1.354089e+00 -1.304652e+00 -7.171006e-01 -1.655718e+00 -7.387981e-01 -2.854899e-02 -1.430694e+00 7.027301e-01 9.570473e-01 -3.282433e-01 -6.543939e-01 -7.969338e-01 -9.073813e-01 -7.256888e-01 -8.698724e-01 -8.280318e-01 -1.056212e+00 -5.708113e-01 -8.385948e-01 -5.850402e-01 -7.042309e-01 -1.325351e-03 -9.376542e-02 -1.811409e-01 -1.249853e-01 -2.521297e-01 -1.742582e-01 -3.009386e-01 -1.666498e-01 -1.762786e-01 -1.869198e-01 -2.404434e-01 -1.528908e-01 -1.663674e-01 -9.952174e-04
<VARIANCE> 39
 5.253918e+00 4.057832e+01 1.200412e+01 8.956922e+00 1.326860e+01 1.642421e+01 7.121562e+00 1.184877e+01 1.132651e+01 9.591434e+00 1.572132e+01 1.586131e+01 2.037744e-03 1.915360e-01 3.068652e-01 2.726098e-01 5.600725e-01 5.263698e-01 7.793297e-01 6.638671e-01 6.696700e-01 7.611893e-01 5.620098e-01 1.462268e+00 9.067249e-01 3.754082e-05 3.037453e-02 7.593849e-02 9.457804e-02 1.215320e-01 1.125124e-01 1.193593e-01 1.314121e-01 1.406518e-01 9.187881e-02 1.434258e-01 1.585108e-01 1.051042e-01 3.730628e-06
<GCONST> 3.861338e+01
<MIXTURE> 9 9.872480e-02
<MEAN> 39
 -1.416303e+00 1.207525e-01 -2.378780e+00 -1.806057e+00 -2.107090e+00 -2.360925e+00 -2.553166e+00 -2.851065e+00 -2.372827e+00 -2.635540e+00 -2.538481e+00 -1.722690e+00 9.657855e-01 1.939915e-01 1.303033e-01 1.637597e-01 1.906382e-01 2.165398e-01 9.580005e-02 2.544904e-01 1.818263e-01 1.867938e-01 8.584780e-02 1.614019e-01 1.168907e-01 -2.730470e-03 8.394901e-02 1.521998e-01 1.741676e-01 1.370533e-01 1.586036e-01 1.512927e-01 1.956066e-01 2.241186e-01 1.729713e-01 1.877872e-01 1.467349e-01 1.478748e-01 -6.971450e-04
<VARIANCE> 39
 3.109764e+00 3.284992e+00 8.513954e+00 6.311170e+00 8.346304e+00 7.356805e+00 1.174694e+01 1.071110e+01 9.197632e+00 9.504442e+00 1.632608e+01 1.073222e+01 8.961207e-04 1.298057e-01 2.660128e-01 4.553024e-01 4.616142e-01 8.340255e-01 5.819957e-01 7.517673e-01 9.088815e-01 6.277980e-01 6.016065e-01 6.775588e-01 5.371241e-01 3.754082e-05 2.406708e-02 4.904028e-02 9.089613e-02 8.077417e-02 1.412483e-01 1.069668e-01 1.316444e-01 1.541659e-01 1.116993e-01 9.392995e-02 1.323123e-01 9.809371e-02 3.730628e-06
<GCONST> 3.020628e+01
<MIXTURE> 10 1.836209e-01
<MEAN> 39
 -2.007282e+00 1.649552e+01 7.457213e-01 -2.821016e+00 -4.768945e+00 -4.603802e+00 -1.033303e+01 -2.945149e-01 4.796427e-01 -5.117726e+00 5.522251e+00 -4.578809e+00 8.686499e-01 3.304325e-02 -2.907011e-01 5.272269e-02 -4.095667e-01 4.197063e-01 -2.598885e-01 5.273726e-02 -8.040228e-02 3.245850e-01 2.577639e-01 -1.260010e-01 1.346436e-01 -3.473029e-03 9.018970e-02 -1.998691e-01 1.394597e-01 -1.474597e-01 1.468764e-01 5.157849e-03 1.630498e-01 6.078816e-02 1.675514e-03 1.308564e-01 -1.795654e-01 1.429118e-01 -3.210043e-03
<VARIANCE> 39
 8.567957e+00 1.997121e+01 1.494104e+01 2.109004e+01 1.475846e+01 1.862631e+01 2.414888e+01 1.848758e+01 2.074563e+01 2.400343e+01 1.666030e+01 1.348627e+01 5.296499e-03 3.459659e-01 3.643452e-01 4.434329e-01 9.491141e-01 5.200305e-01 6.393135e-01 7.625905e-01 7.616243e-01 1.102101e+00 9.621632e-01 7.478650e-01 6.431229e-01 1.003294e-04 6.143925e-02 7.241721e-02 1.102257e-01 1.398971e-01 1.038775e-01 1.455784e-01 1.489778e-01 1.504307e-01 1.246709e-01 1.516721e-01 1.104316e-01 1.333417e-01 1.194921e-05
<GCONST> 4.911523e+01
<STATE> 6
<NUMMIXES> 10
<MIXTURE> 1 7.330497e-03
<MEAN> 39
 -6.220110e+00 7.261040e+00 -3.432509e+00 9.724718e-02 -7.475601e+00 -5.280505e-01 1.419154e+00 4.013671e+00 1.692979e+01 1.697645e+01 1.361052e+01 6.856348e+00 9.014599e-01 1.275671e+00 1.099388e+00 7.492824e-01 1.277026e+00 5.387045e-01 1.012271e+00 3.583145e-01 1.265478e+00 1.039523e+00 1.998835e+00 4.869124e-01 -1.821094e+00 1.841729e-02 1.621362e-01 2.254082e-01 2.160728e-01 1.456107e-01 6.259182e-01 -2.441495e-01 8.614615e-02 1.568061e-01 -3.484326e-01 -5.836973e-01 -5.563682e-02 2.370899e-01 -7.873125e-04
<VARIANCE> 39
 4.959095e+00 7.504754e+01 1.473251e+01 4.955516e+01 1.776414e+01 4.159943e+01 4.435421e+01 7.579605e+01 5.428670e+01 4.638692e+01 2.096070e+01 7.269804e+01 3.151049e-02 7.242841e-01 7.709685e-01 8.484290e-01 2.493615e-01 1.144936e+00 9.767910e-01 7.275431e-01 8.536099e-01 1.774092e+00 1.200312e+00 1.558646e+00 2.429173e+00 6.140919e-04 9.672742e-02 1.849766e-01 6.854419e-02 4.989624e-02 2.267316e-02 4.242737e-01 1.256366e-01 3.041505e-01 1.131583e-01 7.563270e-02 7.899853e-02 2.404853e-01 7.422350e-06
<GCONST> 6.466424e+01
<MIXTURE> 2 8.359486e-02
<MEAN> 39
 -5.455366e-01 9.626688e+00 -6.392452e+00 -1.632620e+00 -6.628714e+00 -5.189655e+00 1.084349e+00 2.789900e+00 8.979721e+00 1.183209e+01 1.181432e+01 8.679276e+00 9.279788e-01 5.989058e-02 -6.894261e-02 7.074550e-04 -2.587525e-01 3.413044e-01 -3.559993e-01 5.517857e-02 7.222632e-02 1.205663e-01 5.228404e-01 -1.110481e-01 5.912619e-02 -8.622333e-04 -5.348384e-02 -1.135687e-01 4.039972e-02 -1.595463e-01 7.568744e-02 -5.595000e-02 -1.184675e-01 -1.250615e-01 -1.462492e-01 -1.683328e-01 -1.635353e-01 1.245217e-02 -3.061799e-03
<VARIANCE> 39
 2.581521e+01 2.025849e+01 2.427406e+01 1.834415e+01 5.052192e+01 2.294754e+01 2.739704e+01 4.214040e+01 5.726311e+01 4.427177e+01 9.195847e+01 1.358769e+02 2.785239e-03 8.158425e-01 9.973716e-01 1.324157e+00 1.176859e+00 2.302783e+00 1.570028e+00 1.057367e+00 1.152023e+00 1.493943e+00 2.056704e+00 2.353909e+00 1.760097e+00 8.306544e-05 1.242080e-01 2.298930e-01 2.769275e-01 2.542841e-01 3.707374e-01 2.960579e-01 2.377322e-01 2.807138e-01 3.465182e-01 3.826387e-01 3.570376e-01 3.868648e-01 1.266889e-05
<GCONST> 7.799609e+01
<MIXTURE> 3 1.240164e-01
<MEAN> 39
 9.226658e-01 1.104147e+01 -4.913103e+00 -1.995990e+00 -5.684006e+00 -7.195748e+00 -5.869048e+00 -2.793985e+00 -2.035204e+00 -2.091979e+00 -3.976364e+00 -2.217357e+00 8.493184e-01 4.295614e-01 -2.378978e-01 1.111373e-01 -2.291252e-01 5.701324e-01 3.989428e-02 1.769382e-01 9.030861e-02 3.820175e-01 -2.812322e-02 4.052197e-01 -1.562983e-01 -1.026520e-02 2.032437e-01 1.139734e-02 3.508479e-01 1.426023e-01 3.512921e-01 2.542372e-01 2.654626e-01 1.683613e-01 7.292847e-02 8.250245e-02 2.689436e-01 1.842709e-01 -4.467978e-03
<VARIANCE> 39
 2.072400e+01 3.876715e+01 2.445639e+01 2.231871e+01 2.520023e+01 3.094122e+01 2.827447e+01 3.754475e+01 3.565742e+01 3.354251e+01 3.658501e+01 3.272089e+01 7.120369e-03 5.985305e-01 4.609714e-01 1.445165e+00 1.268582e+00 1.288728e+00 1.557752e+00 1.857127e+00 1.767855e+00 1.827716e+00 2.061878e+00 2.503433e+00 1.852742e+00 1.495585e-04 9.153860e-02 9.745751e-02 1.892574e-01 1.481510e-01 2.631831e-01 2.552277e-01 2.912134e-01 3.316887e-01 3.228040e-01 3.862486e-01 2.815287e-01 2.273797e-01 2.437642e-05
<GCONST> 7.399797e+01
<MIXTURE> 4 8.054614e-02
<MEAN> 39
 2.127873e+00 1.162027e+01 -4.464708e+00 3.707430e-01 -3.658292e+00 -5.535865e+00 -1.516033e+00 -2.343609e+00 7.642978e-01 2.364152e-01 -1.067495e+00 4.730021e+00 8.565683e-01 4.323418e-02 -7.701248e-01 4.344366e-01 -6.805271e-01 4.095990e-01 -6.083813e-01 -3.625515e-01 -1.617058e-01 -4.132679e-01 -1.209350e-01 3.240825e-01 -1.986490e-01 -1.057245e-02 -2.491076e-03 -2.227769e-01 3.017394e-01 -1.404150e-01 2.909251e-03 -2.523407e-02 -1.936176e-01 -1.669961e-02 -2.514039e-01 -2.068705e-01 -1.053427e-01 -3.872371e-01 -5.967307e-03
<VARIANCE> 39
 2.565252e+01 3.660832e+01 2.571748e+01 1.867797e+01 2.177510e+01 2.329081e+01 1.768445e+01 2.041013e+01 2.185871e+01 3.949301e+01 5.377475e+01 5.693327e+01 7.454203e-03 6.094044e-01 5.773839e-01 1.012024e+00 1.902567e+00 1.701996e+00 1.553518e+00 1.825169e+00 2.032555e+00 1.708015e+00 1.871473e+00 2.421255e+00 2.578777e+00 1.107333e-04 1.053791e-01 1.049244e-01 1.632794e-01 2.000837e-01 2.706411e-01 2.848024e-01 3.132966e-01 3.033030e-01 2.825738e-01 4.061087e-01 4.052066e-01 3.879203e-01 2.060567e-05
<GCONST> 7.483403e+01
<MIXTURE> 5 1.240116e-01
<MEAN> 39
 9.231037e-01 1.104174e+01 -4.913367e+00 -1.995750e+00 -5.683918e+00 -7.195628e+00 -5.869119e+00 -2.794125e+00 -2.034773e+00 -2.092021e+00 -3.976233e+00 -2.217466e+00 8.493145e-01 4.295914e-01 -2.379120e-01 1.111330e-01 -2.290868e-01 5.701555e-01 3.987401e-02 1.769211e-01 9.033263e-02 3.820393e-01 -2.812536e-02 4.051789e-01 -1.562380e-01 -1.026436e-02 2.032226e-01 1.139132e-02 3.508561e-01 1.425937e-01 3.512756e-01 2.542133e-01 2.654583e-01 1.683655e-01 7.290477e-02 8.250329e-02 2.689261e-01 1.842722e-01 -4.467653e-03
<VARIANCE> 39
 2.072424e+01 3.876768e+01 2.445870e+01 2.231912e+01 2.520151e+01 3.094177e+01 2.827447e+01 3.754583e+01 3.565757e+01 3.354351e+01 3.658612e+01 3.272094e+01 7.120383e-03 5.985543e-01 4.609840e-01 1.445265e+00 1.268672e+00 1.288754e+00 1.557890e+00 1.857128e+00 1.767947e+00 1.827716e+00 2.061954e+00 2.503548e+00 1.852809e+00 1.495632e-04 9.153640e-02 9.745891e-02 1.892687e-01 1.481559e-01 2.631933e-01 2.552353e-01 2.912139e-01 3.316931e-01 3.228000e-01 3.862722e-01 2.815293e-01 2.273803e-01 2.437629e-05
<GCONST> 7.399899e+01
<MIXTURE> 6 8.054568e-02
<MEAN> 39
 2.127897e+00 1.162024e+01 -4.464702e+00 3.707131e-01 -3.658294e+00 -5.535869e+00 -1.516048e+00 -2.343579e+00 7.642630e-01 2.363813e-01 -1.067530e+00 4.730025e+00 8.565686e-01 4.323741e-02 -7.701249e-01 4.344302e-01 -6.805187e-01 4.095876e-01 -6.083781e-01 -3.625633e-01 -1.617183e-01 -4.132757e-01 -1.209448e-01 3.240710e-01 -1.986495e-01 -1.057247e-02 -2.490994e-03 -2.227743e-01 3.017393e-01 -1.404086e-01 2.910763e-03 -2.523064e-02 -1.936176e-01 -1.670334e-02 -2.514007e-01 -2.068672e-01 -1.053399e-01 -3.872378e-01 -5.967341e-03
<VARIANCE> 39
 2.565243e+01 3.660836e+01 2.571754e+01 1.867817e+01 2.177511e+01 2.329081e+01 1.768439e+01 2.040990e+01 2.185876e+01 3.949290e+01 5.377519e+01 5.693287e+01 7.454139e-03 6.093969e-01 5.773807e-01 1.012025e+00 1.902556e+00 1.701985e+00 1.553519e+00 1.825152e+00 2.032553e+00 1.708028e+00 1.871464e+00 2.421237e+00 2.578765e+00 1.107335e-04 1.053798e-01 1.049243e-01 1.632809e-01 2.000813e-01 2.706404e-01 2.848000e-01 3.132947e-01 3.033030e-01 2.825747e-01 4.061087e-01 4.052092e-01 3.879195e-01 2.060578e-05
<GCONST> 7.483395e+01
<MIXTURE> 7 8.054560e-02
<MEAN> 39
 2.127611e+00 1.162015e+01 -4.464579e+00 3.705156e-01 -3.658327e+00 -5.535783e+00 -1.515910e+00 -2.343504e+00 7.640753e-01 2.364714e-01 -1.067203e+00 4.730292e+00 8.565738e-01 4.323092e-02 -7.701220e-01 4.344133e-01 -6.805495e-01 4.096096e-01 -6.083754e-01 -3.625645e-01 -1.617553e-01 -4.132701e-01 -1.209356e-01 3.240211e-01 -1.987218e-01 -1.057267e-02 -2.472006e-03 -2.227806e-01 3.017386e-01 -1.403931e-01 2.922587e-03 -2.521816e-02 -1.936271e-01 -1.670602e-02 -2.513883e-01 -2.068647e-01 -1.053630e-01 -3.872561e-01 -5.967595e-03
<VARIANCE> 39
 2.565198e+01 3.660794e+01 2.571665e+01 1.867739e+01 2.177449e+01 2.329004e+01 1.768439e+01 2.040780e+01 2.185817e+01 3.949125e+01 5.377502e+01 5.693376e+01 7.453819e-03 6.093763e-01 5.773746e-01 1.012018e+00 1.902476e+00 1.701964e+00 1.553481e+00 1.825104e+00 2.032506e+00 1.707991e+00 1.871425e+00 2.421117e+00 2.578699e+00 1.107295e-04 1.053814e-01 1.049233e-01 1.632850e-01 2.000738e-01 2.706380e-01 2.847821e-01 3.132963e-01 3.032932e-01 2.825688e-01 4.060953e-01 4.052067e-01 3.879191e-01 2.060624e-05
<GCONST> 7.483312e+01
<MIXTURE> 8 8.571102e-02
<MEAN> 39
 -1.703016e+00 1.333718e+01 -8.754406e+00 -3.195842e+00 -8.333192e+00 -1.162309e+01 -2.856692e+00 -5.591592e+00 -3.935930e+00 -3.236814e+00 -4.775738e+00 1.758563e+00 9.105268e-01 -7.513463e-01 -1.012555e+00 6.446458e-02 -2.208517e+00 4.339049e-01 -1.866400e+00 3.564522e-01 -7.187648e-01 -1.531998e-01 -7.175536e-01 -1.899338e-01 -1.299101e+00 -2.175164e-03 3.053991e-01 -2.509438e-01 7.751817e-01 -1.544768e-01 5.160228e-01 4.156983e-01 1.472845e-01 6.183798e-01 1.279128e-01 2.762570e-01 2.497393e-01 1.770937e-03 -4.400337e-03
<VARIANCE> 39
 1.539918e+01 2.132174e+01 1.676139e+01 2.483567e+01 2.217169e+01 2.302222e+01 1.694134e+01 2.745551e+01 2.860198e+01 2.237794e+01 4.703686e+01 8.824129e+01 2.990634e-03 2.181075e-01 6.117003e-01 1.123618e+00 8.500031e-01 2.045523e+00 1.076547e+00 1.793867e+00 1.628776e+00 1.290009e+00 1.264341e+00 7.786674e-01 9.793010e-01 4.808177e-05 6.981659e-02 1.897905e-01 2.008229e-01 2.492310e-01 2.784885e-01 2.532324e-01 4.266072e-01 3.035375e-01 3.391190e-01 2.945895e-01 3.494615e-01 4.475439e-01 1.526125e-05
<GCONST> 6.767387e+01
<MIXTURE> 9 8.359227e-02
<MEAN> 39
 -5.441663e-01 9.627977e+00 -6.390901e+00 -1.630497e+00 -6.626359e+00 -5.188126e+00 1.085390e+00 2.790791e+00 8.980570e+00 1.183191e+01 1.181269e+01 8.677588e+00 9.279742e-01 5.999431e-02 -6.885520e-02 7.836372e-04 -2.586903e-01 3.414959e-01 -3.559326e-01 5.520618e-02 7.239555e-02 1.204797e-01 5.229474e-01 -1.109641e-01 5.899157e-02 -8.632811e-04 -5.367438e-02 -1.138275e-01 4.014334e-02 -1.598099e-01 7.532540e-02 -5.618302e-02 -1.185894e-01 -1.251202e-01 -1.461767e-01 -1.682257e-01 -1.633593e-01 1.263148e-02 -3.061713e-03
<VARIANCE> 39
 2.581364e+01 2.025844e+01 2.427481e+01 1.833842e+01 5.050262e+01 2.294649e+01 2.739909e+01 4.213957e+01 5.725320e+01 4.427450e+01 9.194326e+01 1.358701e+02 2.785496e-03 8.158754e-01 9.974223e-01 1.324174e+00 1.176708e+00 2.302701e+00 1.570179e+00 1.057273e+00 1.152232e+00 1.493843e+00 2.056751e+00 2.353656e+00 1.760041e+00 8.307504e-05 1.241615e-01 2.298733e-01 2.769192e-01 2.541972e-01 3.705963e-01 2.960759e-01 2.376960e-01 2.807613e-01 3.463876e-01 3.826372e-01 3.569017e-01 3.868927e-01 1.267042e-05
<GCONST> 7.799348e+01
<MIXTURE> 10 2.501061e-01
<MEAN> 39
 -2.175405e+00 1.578552e+01 7.498064e-01 -4.570116e+00 -3.889201e+00 -6.326351e+00 -1.004888e+01 -5.272345e-01 1.269899e+00 -4.465879e+00 5.136497e+00 -3.757266e+00 8.713313e-01 2.650531e-02 -8.495273e-01 6.171472e-01 -1.284491e+00 7.651955e-01 -2.569879e-01 6.941003e-01 2.364582e-01 4.615280e-01 4.999640e-01 -5.574334e-01 5.988435e-01 -6.379956e-03 2.271037e-01 -3.755234e-01 2.483272e-01 -1.034988e-03 6.013739e-02 4.078286e-01 3.145467e-01 2.235002e-01 -1.338957e-01 1.673534e-01 -3.484184e-01 1.059882e-01 -5.832567e-03
<VARIANCE> 39
 9.595650e+00 2.271107e+01 1.401559e+01 1.830279e+01 1.622032e+01 2.013029e+01 2.023335e+01 2.418869e+01 3.030652e+01 2.284180e+01 1.743565e+01 1.538469e+01 5.515845e-03 3.556723e-01 6.498684e-01 6.452851e-01 1.388513e+00 7.993345e-01 1.047319e+00 1.168214e+00 1.287290e+00 1.361115e+00 1.413533e+00 1.080168e+00 1.121468e+00 1.674241e-04 5.713448e-02 1.186761e-01 1.446334e-01 1.987731e-01 1.948494e-01 1.614259e-01 2.395031e-01 2.473223e-01 2.489555e-01 1.986653e-01 1.945720e-01 1.904169e-01 2.968750e-05
<GCONST> 6.077366e+01
<STATE> 7
<NUMMIXES> 10
<MIXTURE> 1 1.736090e-02
<MEAN> 39
 -3.443812e+00 1.181730e+01 -6.950585e+00 -3.338817e+00 -7.069953e+00 -5.995648e+00 -1.595869e-01 -5.844236e+00 -4.076838e+00 -2.884130e+00 -2.020392e+00 1.842034e+00 8.709379e-01 3.685042e-01 7.298080e-01 3.151877e-01 -9.508656e-01 1.136667e+00 -3.987480e-01 2.611398e+00 2.668272e+00 2.883414e+00 1.843769e+00 7.379199e-01 3.258748e-01 -2.033749e-02 2.822567e-01 -1.312603e-01 7.321447e-01 -1.526249e-01 7.516048e-01 4.256151e-01 7.076312e-01 1.261039e+00 8.384016e-01 6.727872e-01 2.440313e-01 5.251609e-02 -4.178172e-03
<VARIANCE> 39
 1.788367e+01 3.048505e+01 5.879274e+00 1.335239e+01 2.091968e+01 3.860147e+01 1.785957e+01 2.195890e+01 3.492311e+01 1.371581e+01 1.115889e+01 1.148095e+01 1.306162e-03 1.126993e+00 9.705306e-01 1.614220e+00 7.601675e-01 2.103753e+00 5.293153e-01 5.044923e+00 4.306290e+00 2.633852e+00 2.691252e+00 7.108939e-01 5.757980e-01 1.589330e-04 9.339606e-02 3.545196e-01 5.973999e-02 2.191477e-01 1.980771e-01 9.862529e-02 6.884392e-01 4.257316e-01 5.788102e-01 5.222633e-01 1.037279e-01 1.299451e-01 2.397787e-05
<GCONST> 6.614175e+01
<MIXTURE> 2 6.736351e-02
<MEAN> 39
 -3.228065e+00 1.308656e+01 -6.416853e+00 -6.568239e+00 -5.231718e+00 -1.376902e+01 -8.902432e-01 -4.694076e+00 -2.698984e+00 -3.953229e+00 -5.267263e+00 -1.018348e+00 8.749621e-01 1.354517e-01 -1.315688e+00 1.687490e+00 -2.200688e+00 2.096448e+00 5.710143e-02 1.274015e+00 1.604784e+00 7.082715e-01 5.473247e-01 9.528290e-01 -6.997603e-01 -1.126754e-02 4.795011e-01 -3.556316e-01 6.404144e-01 4.787646e-01 8.860078e-02 1.202348e+00 -9.427197e-02 6.199290e-01 8.865675e-02 3.325350e-01 2.178862e-01 1.602922e-01 -7.670355e-03
<VARIANCE> 39
 7.788817e+00 2.780234e+01 9.898262e+00 1.517849e+01 2.237247e+01 1.804351e+01 2.398375e+01 2.191754e+01 1.665079e+01 1.693147e+01 2.099074e+01 3.499617e+01 4.274869e-03 6.364000e-01 1.058265e+00 2.426696e+00 1.929807e+00 1.705060e+00 1.843246e+00 2.801106e+00 2.282121e+00 2.606519e+00 2.229441e+00 2.225909e+00 1.805737e+00 1.567355e-04 1.056837e-01 2.502524e-01 2.614197e-01 3.833503e-01 6.083955e-01 2.668184e-01 4.549198e-01 2.988169e-01 4.091937e-01 4.156552e-01 2.952754e-01 4.080580e-01 6.448856e-05
<GCONST> 7.637392e+01
<MIXTURE> 3 1.483589e-01
<MEAN> 39
 8.709761e-01 9.690054e+00 -3.246014e+00 -3.062438e+00 -4.840804e+00 -7.819759e+00 -4.936561e+00 -2.396574e+00 -3.755597e+00 -2.907975e+00 -3.956711e+00 -2.061354e+00 8.417676e-01 5.843968e-01 -3.061343e-01 1.046400e+00 1.794421e-01 1.083031e+00 4.986904e-01 2.454698e-02 3.861288e-03 -3.420677e-03 1.210351e-03 7.406719e-01 -3.512359e-01 -2.261403e-02 9.765808e-02 3.804874e-02 4.391302e-01 4.981346e-01 3.178560e-01 4.942625e-01 1.739802e-01 1.662238e-02 1.544588e-01 1.788570e-01 2.066754e-01 2.572258e-01 -9.615248e-03
<VARIANCE> 39
 2.465534e+01 3.126611e+01 2.033975e+01 3.019983e+01 1.909443e+01 2.271174e+01 2.660328e+01 3.237883e+01 2.577551e+01 2.411695e+01 2.554402e+01 4.100093e+01 6.935753e-03 8.222379e-01 5.840531e-01 1.293387e+00 1.150270e+00 1.616410e+00 1.651693e+00 2.520873e+00 2.205554e+00 2.278188e+00 1.812046e+00 2.375365e+00 2.470899e+00 1.500792e-04 1.442627e-01 1.216577e-01 1.979492e-01 2.206677e-01 2.030489e-01 2.738298e-01 3.733424e-01 3.885845e-01 4.140027e-01 2.864892e-01 3.154462e-01 3.663487e-01 4.130572e-05
<GCONST> 7.635787e+01
<MIXTURE> 4 6.682310e-02
<MEAN> 39
 -1.732119e+00 1.086914e+01 -1.369538e+00 -5.410229e+00 -3.284782e-01 -7.604482e+00 -2.654405e+00 -1.368425e+00 1.196754e+00 5.893538e-01 1.624519e+00 1.211958e+00 8.711832e-01 1.551404e-01 -1.542478e+00 1.208696e+00 -1.745506e+00 7.176867e-01 9.742297e-02 6.526807e-02 6.129907e-01 -4.664464e-01 4.034169e-02 -3.346023e-01 -4.623828e-01 -9.960279e-03 2.052760e-01 -3.838512e-01 3.608592e-01 4.136001e-01 -4.381710e-01 6.564472e-01 -2.174173e-01 1.278106e-01 -1.747939e-01 -2.757672e-01 -2.367873e-01 -2.296680e-01 -6.296956e-03
<VARIANCE> 39
 2.693588e+01 4.255135e+01 1.922380e+01 3.262699e+01 2.072948e+01 4.046883e+01 4.264333e+01 2.907895e+01 2.538666e+01 2.620626e+01 3.925554e+01 4.214064e+01 7.347666e-03 5.354541e-01 1.360900e+00 1.536275e+00 2.863586e+00 1.838850e+00 1.639038e+00 2.629558e+00 2.199372e+00 1.937000e+00 2.787805e+00 2.533519e+00 2.833208e+00 2.380037e-04 1.765683e-01 2.139050e-01 1.930586e-01 2.271395e-01 3.507389e-01 4.062831e-01 5.408277e-01 3.605582e-01 3.038850e-01 3.484636e-01 3.796786e-01 3.217281e-01 3.510304e-05
<GCONST> 8.276151e+01
<MIXTURE> 5 1.483621e-01
<MEAN> 39
 8.706873e-01 9.690055e+00 -3.246007e+00 -3.062719e+00 -4.840901e+00 -7.819881e+00 -4.936553e+00 -2.396585e+00 -3.755692e+00 -2.908020e+00 -3.956708e+00 -2.061483e+00 8.417716e-01 5.844132e-01 -3.061263e-01 1.046409e+00 1.794435e-01 1.083058e+00 4.987312e-01 2.457089e-02 3.871605e-03 -3.387522e-03 1.206107e-03 7.406961e-01 -3.512511e-01 -2.261429e-02 9.767778e-02 3.804621e-02 4.391322e-01 4.981510e-01 3.178622e-01 4.942760e-01 1.739758e-01 1.662371e-02 1.544526e-01 1.788626e-01 2.066765e-01 2.572394e-01 -9.615393e-03
<VARIANCE> 39
 2.465446e+01 3.126596e+01 2.033940e+01 3.019921e+01 1.909371e+01 2.271109e+01 2.660337e+01 3.237823e+01 2.577463e+01 2.411669e+01 2.554357e+01 4.100193e+01 6.935367e-03 8.222148e-01 5.840536e-01 1.293368e+00 1.150275e+00 1.616370e+00 1.651660e+00 2.520844e+00 2.205527e+00 2.278191e+00 1.812042e+00 2.375343e+00 2.470932e+00 1.500779e-04 1.442630e-01 1.216538e-01 1.979466e-01 2.206682e-01 2.030502e-01 2.738190e-01 3.733532e-01 3.885801e-01 4.140027e-01 2.864917e-01 3.154421e-01 3.663494e-01 4.130607e-05
<GCONST> 7.635745e+01
<MIXTURE> 6 6.682300e-02
<MEAN> 39
 -1.730356e+00 1.086752e+01 -1.370188e+00 -5.407786e+00 -3.280046e-01 -7.602889e+00 -2.653537e+00 -1.367705e+00 1.197250e+00 5.907280e-01 1.624074e+00 1.211388e+00 8.711565e-01 1.550877e-01 -1.541968e+00 1.208514e+00 -1.744749e+00 7.177568e-01 9.736311e-02 6.520974e-02 6.126268e-01 -4.663943e-01 4.007322e-02 -3.342766e-01 -4.622122e-01 -9.959687e-03 2.051192e-01 -3.837046e-01 3.609044e-01 4.135197e-01 -4.379877e-01 6.562895e-01 -2.174326e-01 1.276741e-01 -1.748405e-01 -2.758655e-01 -2.368049e-01 -2.296181e-01 -6.297449e-03
<VARIANCE> 39
 2.693865e+01 4.256605e+01 1.922346e+01 3.264857e+01 2.073352e+01 4.048409e+01 4.263850e+01 2.908100e+01 2.538691e+01 2.620977e+01 3.925868e+01 4.214158e+01 7.351457e-03 5.356282e-01 1.361524e+00 1.536416e+00 2.865005e+00 1.838966e+00 1.638938e+00 2.629605e+00 2.199371e+00 1.936628e+00 2.787719e+00 2.533848e+00 2.832982e+00 2.382316e-04 1.765795e-01 2.139178e-01 1.930934e-01 2.271382e-01 3.507648e-01 4.064539e-01 5.407836e-01 3.605933e-01 3.038704e-01 3.484954e-01 3.797024e-01 3.217919e-01 3.509998e-05
<GCONST> 8.276712e+01
<MIXTURE> 7 6.682300e-02
<MEAN> 39
 -1.730356e+00 1.086752e+01 -1.370188e+00 -5.407786e+00 -3.280046e-01 -7.602889e+00 -2.653537e+00 -1.367705e+00 1.197250e+00 5.907280e-01 1.624074e+00 1.211388e+00 8.711565e-01 1.550877e-01 -1.541968e+00 1.208514e+00 -1.744749e+00 7.177568e-01 9.736311e-02 6.520974e-02 6.126268e-01 -4.663943e-01 4.007322e-02 -3.342766e-01 -4.622122e-01 -9.959687e-03 2.051192e-01 -3.837046e-01 3.609044e-01 4.135197e-01 -4.379877e-01 6.562895e-01 -2.174326e-01 1.276741e-01 -1.748405e-01 -2.758655e-01 -2.368049e-01 -2.296181e-01 -6.297449e-03
<VARIANCE> 39
 2.693865e+01 4.256605e+01 1.922346e+01 3.264857e+01 2.073352e+01 4.048409e+01 4.263850e+01 2.908100e+01 2.538691e+01 2.620977e+01 3.925868e+01 4.214158e+01 7.351457e-03 5.356282e-01 1.361524e+00 1.536416e+00 2.865005e+00 1.838966e+00 1.638938e+00 2.629605e+00 2.199371e+00 1.936628e+00 2.787719e+00 2.533848e+00 2.832982e+00 2.382316e-04 1.765795e-01 2.139178e-01 1.930934e-01 2.271382e-01 3.507648e-01 4.064539e-01 5.407836e-01 3.605933e-01 3.038704e-01 3.484954e-01 3.797024e-01 3.217919e-01 3.509998e-05
<GCONST> 8.276712e+01
<MIXTURE> 8 1.093290e-01
<MEAN> 39
 -2.989849e+00 1.076775e+01 -6.531511e+00 -4.519167e+00 -5.918021e+00 -8.010634e+00 3.391394e-01 -5.472732e-01 6.487730e+00 1.101427e+01 1.138916e+01 1.493014e+01 8.994122e-01 4.423375e-01 -6.758860e-01 7.308971e-01 -5.980753e-01 9.124861e-01 -2.483712e-01 -1.042983e-01 7.552686e-02 -1.042383e+00 -8.634818e-01 -2.103367e+00 -1.866049e+00 -2.623693e-02 4.563060e-01 -1.280756e-01 4.300848e-01 3.905704e-01 2.565364e-01 5.074477e-01 -1.284150e-02 2.386739e-02 -4.115049e-01 -8.055390e-01 -6.547353e-01 -9.568162e-01 -1.483770e-02
<VARIANCE> 39
 2.027670e+01 1.915835e+01 2.744020e+01 1.020250e+01 2.679326e+01 2.803431e+01 3.048422e+01 3.730456e+01 5.882567e+01 5.308765e+01 3.104035e+01 6.492509e+01 4.888433e-03 1.454858e+00 9.567535e-01 2.143611e+00 1.443779e+00 2.607965e+00 1.165096e+00 1.948893e+00 2.052840e+00 2.402036e+00 4.445990e+00 3.348802e+00 3.853727e+00 2.918267e-04 2.184733e-01 2.006319e-01 4.471451e-01 2.446716e-01 3.751744e-01 4.313720e-01 4.717509e-01 3.825124e-01 3.783156e-01 5.443175e-01 3.756349e-01 5.448968e-01 9.580437e-05
<GCONST> 8.671776e+01
<MIXTURE> 9 6.736173e-02
<MEAN> 39
 -3.227777e+00 1.308524e+01 -6.417084e+00 -6.568428e+00 -5.231124e+00 -1.377007e+01 -8.901405e-01 -4.695203e+00 -2.700203e+00 -3.952926e+00 -5.268169e+00 -1.019006e+00 8.749820e-01 1.357528e-01 -1.315683e+00 1.688000e+00 -2.200446e+00 2.096364e+00 5.704810e-02 1.273469e+00 1.604738e+00 7.078106e-01 5.473526e-01 9.525886e-01 -6.996962e-01 -1.126722e-02 4.795360e-01 -3.554828e-01 6.405751e-01 4.790260e-01 8.853823e-02 1.202453e+00 -9.441289e-02 6.199636e-01 8.865204e-02 3.325619e-01 2.180270e-01 1.604347e-01 -7.672803e-03
<VARIANCE> 39
 7.789286e+00 2.779844e+01 9.899821e+00 1.517566e+01 2.237380e+01 1.804386e+01 2.397778e+01 2.191744e+01 1.665556e+01 1.693234e+01 2.099119e+01 3.499547e+01 4.274500e-03 6.361200e-01 1.057965e+00 2.426255e+00 1.929862e+00 1.705106e+00 1.843118e+00 2.800596e+00 2.282052e+00 2.606343e+00 2.228689e+00 2.225219e+00 1.805506e+00 1.566954e-04 1.056888e-01 2.502456e-01 2.614213e-01 3.833460e-01 6.084312e-01 2.668150e-01 4.547563e-01 2.988046e-01 4.091473e-01 4.156527e-01 2.952466e-01 4.079784e-01 6.449738e-05
<GCONST> 7.637110e+01
<MIXTURE> 10 2.413951e-01
<MEAN> 39
 -1.000042e+00 1.364301e+01 1.958440e+00 -4.531666e+00 -3.391437e+00 -5.001020e+00 -8.677753e+00 -2.683439e-01 7.232907e-01 -3.748849e+00 4.278069e+00 -3.172025e+00 8.411599e-01 7.824802e-01 -9.549158e-01 8.012198e-01 -3.491696e-01 6.992522e-01 5.602529e-01 1.157941e+00 2.575794e-01 2.922834e-01 4.179358e-01 -8.412538e-01 3.991024e-01 -2.478797e-02 1.632444e-01 -1.278140e-01 7.331489e-02 5.923541e-01 1.996968e-01 4.338181e-01 3.532070e-01 6.792276e-02 -1.880691e-01 3.743197e-02 -2.366975e-01 1.628530e-02 -1.055017e-02
<VARIANCE> 39
 9.981254e+00 3.366145e+01 1.217667e+01 2.944279e+01 1.445618e+01 1.576356e+01 2.421426e+01 1.514176e+01 2.871166e+01 2.527577e+01 1.583655e+01 1.457264e+01 6.250729e-03 4.532765e-01 1.000349e+00 1.467321e+00 1.225585e+00 1.412896e+00 1.151977e+00 1.753259e+00 1.805094e+00 1.590310e+00 2.047848e+00 1.535783e+00 2.057213e+00 1.493209e-04 7.896091e-02 1.254033e-01 1.510696e-01 2.615359e-01 1.977290e-01 2.124392e-01 2.082382e-01 2.109832e-01 3.043630e-01 2.371882e-01 2.466473e-01 1.688516e-01 5.414462e-05
<GCONST> 6.684781e+01
<STATE> 8
<NUMMIXES> 10
<MIXTURE> 1 3.069082e-02
<MEAN> 39
 -3.779505e+00 1.335089e+01 -5.877318e+00 -1.134693e+01 -1.869009e+00 -9.048363e+00 4.190868e+00 5.506153e+00 4.968671e+00 2.081022e+00 -1.098107e+00 -1.612772e+00 8.188049e-01 5.441172e-01 -2.034304e+00 1.062299e+00 -2.371000e+00 2.422973e+00 2.437060e+00 2.697785e+00 3.509481e+00 1.553378e+00 6.074346e-01 9.151619e-01 -1.371433e+00 -3.192222e-02 3.534882e-01 -4.148785e-01 3.747470e-01 8.513086e-01 1.493276e-01 1.494025e+00 -9.165156e-02 -3.732430e-01 -6.619283e-01 -5.699005e-01 9.683400e-02 7.393017e-01 -1.061015e-02
<VARIANCE> 39
 4.493211e+00 5.536786e+01 7.226319e+00 1.641856e+01 1.976268e+01 5.734687e+00 2.270903e+01 1.103367e+01 4.005465e+01 4.296745e+01 3.747471e+01 4.034008e+01 3.880375e-03 9.324760e-01 1.197160e+00 1.576688e+00 1.446322e+00 1.800205e+00 2.231119e+00 6.461973e+00 2.448299e+00 3.738816e+00 3.396024e+00 2.621821e+00 4.920195e+00 2.225360e-04 1.957573e-01 8.613991e-01 1.320651e-01 7.052343e-01 5.731102e-01 9.151118e-02 2.670899e-01 2.288843e-01 8.062469e-01 5.613802e-01 7.304118e-01 6.241344e-01 1.092839e-04
<GCONST> 8.262187e+01
<MIXTURE> 2 6.295307e-02
<MEAN> 39
 1.094664e+00 1.158063e+01 -2.634199e+00 -5.910822e+00 -3.369297e+00 -9.662018e+00 4.685197e-01 7.818925e-01 1.118299e+00 4.234004e+00 3.075952e+00 3.732456e+00 8.471895e-01 9.796844e-01 -8.344029e-01 1.917598e+00 5.140039e-01 1.546570e+00 1.194075e+00 3.653715e-01 6.930470e-01 -5.584173e-01 -3.700174e-01 -6.718740e-01 -1.855780e+00 -5.123073e-02 -3.161530e-01 -2.715844e-01 1.621744e-01 9.209657e-01 2.467816e-01 9.657317e-01 -2.853229e-02 -3.772731e-02 -1.222069e-01 -1.882278e-01 -3.136376e-02 1.070058e-01 -2.348714e-02
<VARIANCE> 39
 1.078579e+01 2.389917e+01 1.258686e+01 2.279410e+01 1.812729e+01 2.297393e+01 2.574886e+01 4.120000e+01 5.818733e+01 5.699707e+01 3.718085e+01 8.020452e+01 7.046663e-03 1.470737e+00 9.750347e-01 2.602012e+00 2.056410e+00 2.333379e+00 2.394771e+00 3.105280e+00 3.935500e+00 4.879263e+00 5.034700e+00 6.013704e+00 5.398491e+00 4.524293e-04 1.795320e-01 2.510102e-01 1.988968e-01 5.058558e-01 3.577115e-01 3.073044e-01 4.753601e-01 5.427632e-01 4.777657e-01 5.845355e-01 5.522608e-01 5.374811e-01 1.887633e-04
<GCONST> 9.225695e+01
<MIXTURE> 3 1.628345e-01
<MEAN> 39
 2.655365e+00 9.099325e+00 -2.094803e+00 -1.182070e+00 -1.849863e+00 -6.115005e+00 -3.625852e+00 -2.918347e+00 -2.235054e+00 -1.300625e+00 -2.056362e+00 -1.236807e+00 8.100461e-01 6.391703e-01 -2.926018e-01 1.525584e+00 9.315408e-01 1.149642e+00 1.044564e+00 4.206847e-01 -5.361618e-02 2.049831e-01 1.483777e-01 2.165910e-01 -3.981829e-01 -3.525746e-02 -2.773007e-01 -6.791060e-02 3.439256e-01 4.879396e-01 1.069839e-01 4.529780e-01 1.779719e-01 2.089875e-01 1.441487e-01 1.034743e-01 1.575318e-01 2.642123e-01 -1.331736e-02
<VARIANCE> 39
 2.141044e+01 3.972842e+01 1.960935e+01 2.748571e+01 2.416242e+01 2.439264e+01 3.207998e+01 3.050667e+01 2.556527e+01 2.274454e+01 2.796281e+01 3.866029e+01 6.201941e-03 1.069859e+00 8.751683e-01 2.007472e+00 1.365029e+00 1.701176e+00 1.696663e+00 2.752953e+00 2.466975e+00 1.855848e+00 2.160187e+00 3.479169e+00 2.985152e+00 2.569646e-04 1.363645e-01 1.629753e-01 2.293206e-01 3.153208e-01 3.141132e-01 3.607571e-01 4.169298e-01 4.400730e-01 3.602755e-01 3.790055e-01 4.207094e-01 3.931578e-01 9.701600e-05
<GCONST> 8.228906e+01
<MIXTURE> 4 6.232510e-02
<MEAN> 39
 -2.184596e+00 9.234036e+00 1.168978e+00 -1.155557e+01 5.140758e-02 -7.999608e+00 -4.039765e+00 1.793048e+00 -1.306590e-01 -1.208039e+00 -1.748402e+00 -2.486991e+00 8.617297e-01 9.504704e-01 -2.335334e+00 1.908827e+00 -7.632648e-01 9.089236e-02 2.066971e+00 1.542470e-01 7.868161e-01 2.460494e-01 -1.178434e-01 -2.856734e-01 -7.367438e-02 -1.608038e-02 2.529080e-01 -5.026369e-02 -1.789628e-01 1.244920e+00 -5.509093e-01 5.979239e-01 4.254969e-02 -3.009820e-01 1.996808e-02 -1.809777e-01 4.543022e-02 1.273336e-01 -5.911618e-03
<VARIANCE> 39
 1.237382e+01 3.824033e+01 2.452262e+01 2.562006e+01 2.468004e+01 3.554298e+01 3.552239e+01 3.267097e+01 2.291643e+01 2.080486e+01 3.209948e+01 1.822213e+01 5.438525e-03 9.212209e-01 1.841609e+00 2.341666e+00 1.627078e+00 3.185270e+00 2.416682e+00 4.013265e+00 2.406191e+00 3.011312e+00 3.463206e+00 4.010594e+00 3.407995e+00 3.281733e-04 1.572791e-01 2.322460e-01 1.944282e-01 4.015433e-01 2.594022e-01 3.755449e-01 5.670590e-01 6.593987e-01 3.862889e-01 3.862036e-01 3.937559e-01 3.828118e-01 8.171656e-05
<GCONST> 8.617044e+01
<MIXTURE> 5 1.628379e-01
<MEAN> 39
 2.655409e+00 9.099284e+00 -2.094779e+00 -1.182074e+00 -1.849852e+00 -6.115098e+00 -3.625961e+00 -2.918432e+00 -2.235076e+00 -1.300633e+00 -2.056360e+00 -1.236887e+00 8.100474e-01 6.391508e-01 -2.926193e-01 1.525615e+00 9.315604e-01 1.149633e+00 1.044556e+00 4.206710e-01 -5.361953e-02 2.049693e-01 1.483585e-01 2.165696e-01 -3.982047e-01 -3.525749e-02 -2.773115e-01 -6.791319e-02 3.439322e-01 4.879497e-01 1.069904e-01 4.529965e-01 1.779824e-01 2.090040e-01 1.441480e-01 1.034747e-01 1.575333e-01 2.642162e-01 -1.331767e-02
<VARIANCE> 39
 2.141041e+01 3.972870e+01 1.960935e+01 2.748659e+01 2.416277e+01 2.439292e+01 3.207986e+01 3.050742e+01 2.556556e+01 2.274475e+01 2.796311e+01 3.866082e+01 6.201928e-03 1.069850e+00 8.751677e-01 2.007458e+00 1.365047e+00 1.701186e+00 1.696669e+00 2.752969e+00 2.466981e+00 1.855846e+00 2.160202e+00 3.479211e+00 2.985132e+00 2.569611e-04 1.363646e-01 1.629767e-01 2.293260e-01 3.153344e-01 3.141180e-01 3.607652e-01 4.169337e-01 4.400874e-01 3.602821e-01 3.790093e-01 4.207163e-01 3.931630e-01 9.701661e-05
<GCONST> 8.228942e+01
<MIXTURE> 6 6.232075e-02
<MEAN> 39
 -2.184540e+00 9.233756e+00 1.168437e+00 -1.155477e+01 5.182439e-02 -7.999714e+00 -4.038852e+00 1.792668e+00 -1.309939e-01 -1.208104e+00 -1.748787e+00 -2.487274e+00 8.617238e-01 9.504917e-01 -2.335123e+00 1.908919e+00 -7.631903e-01 9.113071e-02 2.066895e+00 1.539325e-01 7.867412e-01 2.459692e-01 -1.179762e-01 -2.854201e-01 -7.382199e-02 -1.608038e-02 2.529104e-01 -5.023792e-02 -1.789200e-01 1.244834e+00 -5.509462e-01 5.979205e-01 4.245387e-02 -3.009697e-01 2.001707e-02 -1.809652e-01 4.543944e-02 1.274064e-01 -5.910588e-03
<VARIANCE> 39
 1.237548e+01 3.824346e+01 2.452185e+01 2.562477e+01 2.468374e+01 3.554752e+01 3.552182e+01 3.267057e+01 2.291598e+01 2.080497e+01 3.210122e+01 1.822261e+01 5.439135e-03 9.212927e-01 1.841761e+00 2.341771e+00 1.627163e+00 3.185765e+00 2.416858e+00 4.013505e+00 2.406232e+00 3.011363e+00 3.463873e+00 4.010414e+00 3.408263e+00 3.281856e-04 1.572812e-01 2.322426e-01 1.944278e-01 4.015885e-01 2.594066e-01 3.755594e-01 5.670726e-01 6.593772e-01 3.862741e-01 3.862025e-01 3.937744e-01 3.828455e-01 8.171038e-05
<GCONST> 8.617225e+01
<MIXTURE> 7 6.231576e-02
<MEAN> 39
 -2.184541e+00 9.233070e+00 1.167781e+00 -1.155409e+01 5.189674e-02 -7.999534e+00 -4.038085e+00 1.792279e+00 -1.313871e-01 -1.208345e+00 -1.749039e+00 -2.487632e+00 8.617211e-01 9.504819e-01 -2.334912e+00 1.908967e+00 -7.630664e-01 9.133609e-02 2.066808e+00 1.536308e-01 7.865841e-01 2.459680e-01 -1.181290e-01 -2.851875e-01 -7.392601e-02 -1.607974e-02 2.529158e-01 -5.019140e-02 -1.788569e-01 1.244753e+00 -5.509671e-01 5.979027e-01 4.240254e-02 -3.009668e-01 2.008709e-02 -1.809077e-01 4.541685e-02 1.274889e-01 -5.909340e-03
<VARIANCE> 39
 1.237655e+01 3.824836e+01 2.452013e+01 2.563256e+01 2.468777e+01 3.555310e+01 3.551972e+01 3.266957e+01 2.291818e+01 2.080652e+01 3.210315e+01 1.822343e+01 5.439688e-03 9.213645e-01 1.841980e+00 2.341883e+00 1.627234e+00 3.186391e+00 2.417127e+00 4.013860e+00 2.406450e+00 3.011560e+00 3.464832e+00 4.010472e+00 3.408638e+00 3.282160e-04 1.572791e-01 2.322403e-01 1.944197e-01 4.016690e-01 2.593988e-01 3.755885e-01 5.670749e-01 6.593518e-01 3.862647e-01 3.862337e-01 3.938192e-01 3.828747e-01 8.170213e-05
<GCONST> 8.617494e+01
<MIXTURE> 8 6.773837e-02
<MEAN> 39
 -5.841153e+00 6.602225e+00 8.293517e-01 -1.234204e+01 1.600002e+00 -8.605967e+00 -2.354548e+00 1.654476e+00 -1.226605e+00 3.708821e+00 4.709034e+00 4.102246e+00 9.274923e-01 6.743135e-01 -3.415969e+00 1.658652e+00 -1.826067e+00 -1.039208e+00 2.666461e+00 -2.864876e-02 7.023411e-01 -6.232247e-01 -5.873579e-01 -1.302803e+00 -4.260133e-01 -3.655286e-03 5.215857e-01 -6.011380e-01 -2.171505e-01 1.402354e+00 -1.189404e+00 5.245997e-01 3.145009e-01 -5.205297e-01 1.915488e-02 -4.775775e-01 -4.399635e-01 -1.866680e-01 -2.962724e-03
<VARIANCE> 39
 1.580410e+01 1.806415e+01 3.298636e+01 1.350168e+01 1.900347e+01 2.442627e+01 3.803062e+01 1.752366e+01 2.538148e+01 2.265824e+01 2.410887e+01 7.316440e+01 3.774442e-03 5.581092e-01 9.923687e-01 2.594933e+00 1.143154e+00 2.044430e+00 2.486020e+00 4.315854e+00 3.157485e+00 3.837956e+00 5.221061e+00 4.041065e+00 3.478043e+00 1.995020e-04 8.816693e-02 1.228156e-01 3.974068e-01 3.578358e-01 4.853202e-01 4.442319e-01 3.920622e-01 2.156965e-01 5.271595e-01 2.873150e-01 2.495538e-01 2.735471e-01 7.782745e-06
<GCONST> 7.936211e+01
<MIXTURE> 9 6.297219e-02
<MEAN> 39
 1.094223e+00 1.157818e+01 -2.634184e+00 -5.906552e+00 -3.371079e+00 -9.658036e+00 4.687101e-01 7.848667e-01 1.127896e+00 4.245138e+00 3.084240e+00 3.737832e+00 8.471709e-01 9.798709e-01 -8.341669e-01 1.916341e+00 5.141049e-01 1.545829e+00 1.193692e+00 3.648644e-01 6.910939e-01 -5.599514e-01 -3.722857e-01 -6.737815e-01 -1.856572e+00 -5.123911e-02 -3.160688e-01 -2.714757e-01 1.621145e-01 9.201574e-01 2.469344e-01 9.653394e-01 -2.828692e-02 -3.811794e-02 -1.224043e-01 -1.889776e-01 -3.174859e-02 1.066069e-01 -2.348451e-02
<VARIANCE> 39
 1.079303e+01 2.390002e+01 1.258547e+01 2.278609e+01 1.811558e+01 2.296629e+01 2.576264e+01 4.121220e+01 5.826979e+01 5.707970e+01 3.721796e+01 8.023473e+01 7.049717e-03 1.471053e+00 9.753451e-01 2.604581e+00 2.055851e+00 2.333588e+00 2.393317e+00 3.105287e+00 3.934558e+00 4.878946e+00 5.035508e+00 6.016149e+00 5.400306e+00 4.528923e-04 1.795078e-01 2.510670e-01 1.988982e-01 5.058414e-01 3.578249e-01 3.071315e-01 4.754550e-01 5.427344e-01 4.775871e-01 5.847507e-01 5.525191e-01 5.376073e-01 1.888848e-04
<GCONST> 9.226539e+01
<MIXTURE> 10 2.630112e-01
<MEAN> 39
 5.142833e-01 1.237623e+01 3.649440e+00 -3.804415e+00 -2.770520e+00 -3.547282e+00 -7.047154e+00 4.793915e-01 8.244762e-01 -3.024209e+00 3.069798e+00 -2.424994e+00 7.889493e-01 8.737225e-01 -6.312672e-01 8.839355e-01 9.312305e-01 1.001018e+00 1.055114e+00 1.266815e+00 1.883153e-01 -2.274745e-01 3.018501e-01 -6.068003e-01 4.928831e-01 -3.774901e-02 -1.813552e-01 -6.100628e-02 -1.674135e-01 6.178066e-01 2.441161e-01 2.820899e-01 1.666932e-01 -9.786690e-02 -2.022624e-01 -1.907566e-02 -7.534444e-02 -4.543096e-02 -1.078793e-02
<VARIANCE> 39
 1.268552e+01 2.921929e+01 1.551992e+01 3.868836e+01 1.736217e+01 2.099809e+01 2.472739e+01 2.150183e+01 2.874579e+01 2.959268e+01 2.066369e+01 1.729540e+01 6.540558e-03 8.268059e-01 8.657874e-01 1.403581e+00 1.126108e+00 1.546637e+00 1.566117e+00 2.702261e+00 1.923271e+00 1.957451e+00 2.252440e+00 1.550717e+00 1.719334e+00 3.750193e-04 9.941047e-02 1.848495e-01 1.478765e-01 2.937462e-01 2.336964e-01 2.943133e-01 2.597470e-01 2.885241e-01 2.783133e-01 3.190899e-01 2.779105e-01 2.837339e-01 1.013363e-04
<GCONST> 7.443259e+01
<STATE> 9
<NUMMIXES> 10
<MIXTURE> 1 2.453028e-03
<MEAN> 39
 4.046853e+00 8.025910e+00 -8.071331e-01 -3.636751e+00 2.478931e+00 -7.886576e+00 6.229115e+00 -8.875223e-01 -1.566377e+00 6.667747e+00 -6.479836e+00 1.173433e+01 9.022024e-01 5.362714e-01 -8.907343e-01 4.885344e+00 3.377696e+00 6.350488e+00 2.835421e+00 4.647018e+00 2.850278e+00 -1.184083e-01 1.701897e+00 -2.139777e+00 -3.524928e+00 -9.942934e-02 -1.062987e+00 -1.031948e-01 4.105965e-01 1.528301e+00 4.479476e-01 1.349053e+00 4.311860e-01 3.027351e-01 5.648497e-01 5.414031e-01 1.619620e+00 1.477138e-01 -2.388116e-02
<VARIANCE> 39
 1.092975e+00 4.466260e+00 3.784402e+00 5.986339e-01 8.674363e-01 4.730613e+01 9.883127e-01 2.803252e+01 3.948871e+00 5.273120e+00 4.554256e-01 5.397410e+01 8.178985e-04 8.712783e-02 2.082233e-01 1.580025e-01 2.837089e-01 2.705516e-02 1.486575e+00 3.732689e-01 8.202879e-01 2.111458e+00 2.830696e-02 3.540069e+00 8.405850e+00 2.364069e-04 3.006852e-03 2.367924e-02 3.548016e-03 3.628179e-02 2.614886e-01 5.516532e-02 3.237984e-02 5.125499e-01 5.208369e-03 1.711738e-02 4.887285e-03 1.286503e+00 1.327486e-04
<GCONST> 1.079358e+01
<MIXTURE> 2 3.968704e-02
<MEAN> 39
 -6.396595e-01 9.127300e+00 -1.324465e-01 -1.215889e+01 5.086161e-01 -4.767315e+00 2.417471e+00 6.561594e+00 4.138817e+00 2.955662e+00 1.414086e+00 -2.334002e+00 7.865578e-01 5.366292e-01 -2.193777e+00 1.499750e+00 8.218549e-01 1.201986e+00 3.785102e+00 1.069589e+00 7.949823e-01 1.048481e-01 -8.187483e-01 -1.829197e-01 -4.063633e-01 -5.751634e-02 -2.801254e-01 -1.545960e-01 -3.435581e-01 1.291527e+00 -2.531112e-01 4.235773e-01 -2.244589e-01 -8.697615e-01 -4.221399e-01 -3.231404e-01 5.459217e-02 5.239410e-01 -1.447180e-02
<VARIANCE> 39
 8.865978e+00 2.775398e+01 4.233727e+01 2.702505e+01 3.148354e+01 3.649686e+01 6.436600e+01 4.041891e+01 6.190734e+01 5.470528e+01 3.102756e+01 4.054943e+01 4.235365e-03 1.911424e+00 4.259899e+00 3.146392e+00 4.999414e+00 4.996920e+00 3.296930e+00 4.599009e+00 4.720967e+00 6.029784e+00 5.745044e+00 6.248639e+00 5.929475e+00 1.386576e-03 2.099430e-01 4.455445e-01 4.320374e-01 4.853805e-01 5.910290e-01 8.163966e-01 9.281219e-01 1.205307e+00 1.744360e+00 1.437948e+00 9.787169e-01 7.355636e-01 3.147676e-04
<GCONST> 1.082246e+02
<MIXTURE> 3 1.814948e-01
<MEAN> 39
 3.351726e+00 1.052497e+01 3.272304e+00 -8.576930e-01 -1.355632e+00 -4.373002e+00 -3.771427e+00 -1.551832e+00 -1.532001e+00 -1.622497e+00 -7.767442e-01 -1.661470e+00 7.555840e-01 -1.996736e-01 -8.489423e-01 1.749948e+00 2.362145e+00 1.495554e+00 2.016998e+00 6.094305e-01 3.903604e-01 -1.231536e-01 8.017560e-02 1.736733e-01 -3.552610e-02 -7.102688e-02 -8.095106e-01 -4.425470e-01 -4.118736e-01 3.651055e-01 1.720186e-01 4.593316e-01 2.439601e-01 3.479419e-01 2.601732e-01 2.042566e-01 3.057323e-01 3.229256e-01 -2.619782e-02
<VARIANCE> 39
 1.604227e+01 3.108135e+01 1.930034e+01 3.225399e+01 2.245218e+01 2.304041e+01 2.582600e+01 4.037415e+01 3.098037e+01 2.280606e+01 3.027784e+01 3.844549e+01 5.643013e-03 1.219247e+00 1.393012e+00 1.829084e+00 2.036332e+00 1.620464e+00 2.069702e+00 2.689736e+00 2.205219e+00 2.149438e+00 2.926044e+00 2.812489e+00 2.800487e+00 5.714764e-04 1.555837e-01 2.118194e-01 3.129551e-01 3.628566e-01 3.439187e-01 4.158180e-01 5.487030e-01 5.996413e-01 4.320046e-01 3.996693e-01 4.797028e-01 4.881386e-01 7.150301e-05
<GCONST> 8.583574e+01
<MIXTURE> 4 6.946996e-02
<MEAN> 39
 -5.735306e-01 5.196522e+00 3.043407e+00 -9.433617e+00 -1.104644e+00 -2.184666e+00 -4.067589e+00 8.319246e-01 5.949128e-01 -2.004121e+00 -9.968652e-01 -1.024509e+00 8.319091e-01 1.187570e+00 -1.797899e+00 1.290128e+00 1.291708e+00 -8.834441e-01 2.010966e+00 2.952470e-01 -2.992964e-01 1.023834e-02 -4.644876e-01 -4.631019e-01 -6.083962e-02 -1.896855e-02 -9.188458e-03 2.155565e-01 -6.130074e-01 9.774554e-01 -2.294918e-01 -4.442922e-01 2.198498e-01 -2.083354e-01 -1.289688e-02 9.200356e-02 1.029008e-01 1.496577e-01 6.320432e-04
<VARIANCE> 39
 2.189376e+01 4.056829e+01 3.710686e+01 3.863921e+01 2.993297e+01 3.003674e+01 3.112374e+01 2.819884e+01 2.801807e+01 3.624199e+01 3.590896e+01 3.773505e+01 1.025749e-02 1.001898e+00 3.617379e+00 2.338207e+00 2.144496e+00 4.450033e+00 3.276812e+00 4.565397e+00 3.425483e+00 2.040303e+00 3.384282e+00 4.727139e+00 3.412645e+00 4.432569e-04 2.745941e-01 1.972919e-01 5.400246e-01 7.620071e-01 4.719405e-01 4.300005e-01 5.182959e-01 5.167204e-01 5.666087e-01 6.010582e-01 4.380239e-01 5.779542e-01 8.062246e-05
<GCONST> 9.559672e+01
<MIXTURE> 5 1.814812e-01
<MEAN> 39
 3.351743e+00 1.052492e+01 3.272320e+00 -8.576488e-01 -1.355491e+00 -4.372885e+00 -3.771403e+00 -1.551738e+00 -1.531893e+00 -1.622521e+00 -7.768030e-01 -1.661601e+00 7.555845e-01 -1.996585e-01 -8.489305e-01 1.749939e+00 2.362141e+00 1.495551e+00 2.016973e+00 6.094319e-01 3.903345e-01 -1.231535e-01 8.015808e-02 1.736665e-01 -3.550635e-02 -7.102618e-02 -8.095015e-01 -4.425404e-01 -4.118717e-01 3.650975e-01 1.720038e-01 4.593123e-01 2.439473e-01 3.479252e-01 2.601639e-01 2.042521e-01 3.057397e-01 3.229294e-01 -2.619755e-02
<VARIANCE> 39
 1.604240e+01 3.108225e+01 1.930053e+01 3.225473e+01 2.245341e+01 2.304012e+01 2.582675e+01 4.037435e+01 3.098048e+01 2.280615e+01 3.027858e+01 3.844619e+01 5.642931e-03 1.219238e+00 1.393000e+00 1.829096e+00 2.036319e+00 1.620453e+00 2.069722e+00 2.689751e+00 2.205194e+00 2.149423e+00 2.926018e+00 2.812468e+00 2.800479e+00 5.714801e-04 1.555844e-01 2.118222e-01 3.129625e-01 3.628594e-01 3.439305e-01 4.158117e-01 5.487111e-01 5.996323e-01 4.320042e-01 3.996698e-01 4.797145e-01 4.881431e-01 7.150426e-05
<GCONST> 8.583601e+01
<MIXTURE> 6 6.944934e-02
<MEAN> 39
 -5.704355e-01 5.199261e+00 3.040915e+00 -9.429264e+00 -1.102689e+00 -2.184206e+00 -4.066960e+00 8.309208e-01 5.949827e-01 -2.004564e+00 -9.979153e-01 -1.026975e+00 8.318591e-01 1.187316e+00 -1.796389e+00 1.290102e+00 1.291359e+00 -8.819561e-01 2.010454e+00 2.944748e-01 -2.993172e-01 1.024159e-02 -4.649932e-01 -4.628007e-01 -6.071471e-02 -1.897535e-02 -9.603474e-03 2.155529e-01 -6.125543e-01 9.767312e-01 -2.296286e-01 -4.440818e-01 2.196045e-01 -2.082400e-01 -1.287297e-02 9.215683e-02 1.029987e-01 1.498443e-01 6.331289e-04
<VARIANCE> 39
 2.189170e+01 4.057486e+01 3.711490e+01 3.864953e+01 2.993848e+01 3.002870e+01 3.111977e+01 2.819899e+01 2.801965e+01 3.624636e+01 3.590400e+01 3.772057e+01 1.025832e-02 1.001963e+00 3.616510e+00 2.339114e+00 2.144917e+00 4.449488e+00 3.277315e+00 4.565448e+00 3.425282e+00 2.040065e+00 3.384382e+00 4.728065e+00 3.413610e+00 4.433786e-04 2.745274e-01 1.972826e-01 5.400559e-01 7.617412e-01 4.719617e-01 4.299274e-01 5.182739e-01 5.166699e-01 5.665869e-01 6.012529e-01 4.382391e-01 5.782288e-01 8.067068e-05
<GCONST> 9.559887e+01
<MIXTURE> 7 6.938744e-02
<MEAN> 39
 -5.613135e-01 5.207328e+00 3.033644e+00 -9.415998e+00 -1.096704e+00 -2.183006e+00 -4.065200e+00 8.275710e-01 5.948456e-01 -2.005989e+00 -1.000711e+00 -1.034260e+00 8.317057e-01 1.186619e+00 -1.791802e+00 1.290104e+00 1.290308e+00 -8.775210e-01 2.008864e+00 2.919334e-01 -2.993439e-01 1.025432e-02 -4.665709e-01 -4.618035e-01 -6.043310e-02 -1.899597e-02 -1.084276e-02 2.155763e-01 -6.112404e-01 9.745588e-01 -2.300584e-01 -4.434344e-01 2.189091e-01 -2.079188e-01 -1.271173e-02 9.263860e-02 1.032930e-01 1.504530e-01 6.368870e-04
<VARIANCE> 39
 2.188609e+01 4.059564e+01 3.713808e+01 3.867947e+01 2.995702e+01 3.000487e+01 3.110776e+01 2.819980e+01 2.802471e+01 3.626671e+01 3.589201e+01 3.768251e+01 1.026067e-02 1.002196e+00 3.613893e+00 2.341859e+00 2.146280e+00 4.447926e+00 3.278711e+00 4.565557e+00 3.424819e+00 2.039294e+00 3.385031e+00 4.730810e+00 3.416830e+00 4.437481e-04 2.743451e-01 1.972670e-01 5.401560e-01 7.609937e-01 4.720719e-01 4.296943e-01 5.182196e-01 5.164992e-01 5.664976e-01 6.019664e-01 4.389054e-01 5.791063e-01 8.081634e-05
<GCONST> 9.560662e+01
<MIXTURE> 8 6.901704e-02
<MEAN> 39
 5.660578e+00 1.448538e+01 -2.562864e+00 2.779314e-01 -1.657045e+00 -6.044223e+00 -3.562466e+00 2.990477e-01 1.821482e+00 5.316006e+00 2.082632e+00 -6.671331e-01 5.926489e-01 -2.769838e-01 -9.712849e-01 7.737926e-01 6.012726e-01 6.259087e-01 -9.809938e-03 -1.380672e-01 -8.347399e-01 -5.288420e-01 -1.277352e+00 -1.340452e+00 -8.034459e-01 -4.505876e-02 -4.508977e-01 -3.720239e-01 2.738672e-01 -6.406235e-02 8.422324e-02 2.649992e-01 -1.546385e-02 -1.545120e-01 -3.505568e-01 -5.222355e-01 -1.820005e-01 2.137050e-03 -8.221271e-03
<VARIANCE> 39
 9.059402e+00 1.560851e+01 8.594820e+00 1.808224e+01 2.120398e+01 2.125769e+01 5.778176e+01 2.691496e+01 3.266504e+01 2.487720e+01 2.945189e+01 2.841492e+01 1.620684e-02 1.195826e+00 1.036306e+00 1.541504e+00 1.147251e+00 2.165748e+00 2.673537e+00 2.058861e+00 2.159692e+00 2.866154e+00 3.226611e+00 1.815675e+00 2.303257e+00 1.226046e-03 2.160221e-01 1.280003e-01 3.082161e-01 1.848262e-01 3.883037e-01 3.619855e-01 3.815125e-01 5.015854e-01 5.342778e-01 5.259679e-01 5.029703e-01 3.685314e-01 1.441785e-04
<GCONST> 8.355855e+01
<MIXTURE> 9 3.953446e-02
<MEAN> 39
 -6.184146e-01 9.113134e+00 -6.521749e-02 -1.213667e+01 4.913107e-01 -4.794715e+00 2.319105e+00 6.492682e+00 4.090465e+00 2.936983e+00 1.431560e+00 -2.329514e+00 7.868115e-01 5.438099e-01 -2.168421e+00 1.503264e+00 8.471989e-01 1.185101e+00 3.773822e+00 1.062742e+00 7.876521e-01 1.059009e-01 -8.190156e-01 -2.006592e-01 -4.080912e-01 -5.770294e-02 -2.836158e-01 -1.482431e-01 -3.495307e-01 1.293200e+00 -2.488632e-01 4.222208e-01 -2.121589e-01 -8.557387e-01 -4.131579e-01 -3.149946e-01 5.535906e-02 5.204564e-01 -1.461515e-02
<VARIANCE> 39
 8.862385e+00 2.777669e+01 4.233374e+01 2.712952e+01 3.130687e+01 3.643896e+01 6.380346e+01 4.033063e+01 6.183707e+01 5.470242e+01 3.117414e+01 4.054265e+01 4.246609e-03 1.925770e+00 4.247758e+00 3.141491e+00 4.978618e+00 4.929558e+00 3.300230e+00 4.585929e+00 4.706303e+00 6.064903e+00 5.763957e+00 6.222171e+00 5.967557e+00 1.390517e-03 2.101996e-01 4.436479e-01 4.310361e-01 4.858757e-01 5.855474e-01 8.122960e-01 9.107952e-01 1.186518e+00 1.737805e+00 1.430110e+00 9.811530e-01 7.337845e-01 3.160358e-04
<GCONST> 1.081526e+02
<MIXTURE> 10 2.780251e-01
<MEAN> 39
 4.023149e+00 1.043232e+01 1.074071e+00 1.884132e+00 1.026081e+00 -2.696378e+00 -2.849392e+00 -1.072560e+00 -1.359972e+00 -1.768200e+00 -5.136811e-01 -6.866533e-01 7.101144e-01 2.416908e-01 -2.705604e-01 9.452886e-01 1.185268e+00 9.780738e-01 6.961284e-01 5.471600e-01 -5.485101e-01 -6.006967e-02 1.201427e-01 -1.185780e-01 1.474457e-01 -3.467917e-02 -4.081964e-01 -1.610428e-01 -2.605633e-02 3.689167e-02 -9.044217e-02 -3.071856e-02 -5.225929e-02 5.520496e-02 1.638668e-01 1.060486e-01 9.658355e-02 -4.185988e-03 -5.308500e-03
<VARIANCE> 39
 1.317900e+01 3.667743e+01 2.347644e+01 3.020695e+01 3.116585e+01 2.400074e+01 3.841003e+01 2.337889e+01 2.605309e+01 2.593703e+01 2.929377e+01 2.933319e+01 1.048423e-02 9.338072e-01 6.692612e-01 1.260829e+00 1.393251e+00 1.335992e+00 1.850971e+00 2.277592e+00 2.221951e+00 2.035834e+00 1.821258e+00 2.418483e+00 2.137552e+00 5.067953e-04 1.086774e-01 1.300045e-01 2.735212e-01 2.050897e-01 3.461863e-01 3.221630e-01 4.323403e-01 3.682702e-01 3.258342e-01 3.955667e-01 3.518199e-01 3.663124e-01 1.153503e-04
<GCONST> 8.020326e+01
<STATE> 10
<MEAN> 39
 1.805459e+00 8.049386e+00 4.271695e+00 -3.938743e-02 -1.560293e-01 -9.658231e-01 -2.513250e+00 -1.280098e+00 -1.030215e+00 -1.919663e+00 -5.439743e-01 -1.265987e+00 6.882715e-01 -6.899155e-01 -1.528188e+00 5.348453e-01 1.977350e+00 8.152783e-01 1.678684e+00 9.436710e-01 3.928325e-01 1.262564e-01 1.929367e-01 2.996136e-01 4.093752e-01 -7.200647e-02 -5.696273e-01 -2.602095e-01 -6.805627e-01 -1.192037e-01 -2.568615e-02 -2.334402e-01 1.741469e-01 3.296930e-01 3.264568e-01 3.620206e-01 2.612958e-01 2.095230e-01 -9.020410e-03
<VARIANCE> 39
 1.757645e+01 5.146219e+01 2.731362e+01 5.327634e+01 3.741387e+01 3.286238e+01 4.114292e+01 4.009256e+01 4.011075e+01 3.552345e+01 3.878229e+01 3.506718e+01 1.661251e-02 2.224145e+00 2.467277e+00 1.925615e+00 3.056177e+00 3.229601e+00 3.550728e+00 2.944728e+00 3.407216e+00 3.041821e+00 3.253835e+00 3.072210e+00 2.790461e+00 2.744321e-03 3.167322e-01 3.947666e-01 4.633509e-01 5.631000e-01 6.473542e-01 7.415318e-01 7.110407e-01 7.881331e-01 6.695763e-01 6.760891e-01 6.554826e-01 6.645304e-01 3.281347e-04
<GCONST> 1.030511e+02
<STATE> 11
<MEAN> 39
 -1.249348e-01 5.885291e+00 4.332026e+00 2.227381e+00 1.118909e+00 8.267929e-01 -1.122051e+00 1.978644e-02 -4.693798e-01 -1.283376e+00 4.451829e-01 -1.283473e-01 5.865940e-01 -1.389510e+00 -2.028249e+00 -5.133937e-01 1.191058e+00 7.570980e-01 1.095223e+00 1.160023e+00 1.021190e+00 7.738801e-01 8.499696e-01 6.292882e-01 6.285460e-01 -8.084948e-02 -2.300853e-01 -3.627210e-02 -5.804239e-01 -5.085957e-01 -8.243840e-02 -3.772060e-01 3.874879e-02 2.021546e-01 2.976558e-01 3.014389e-01 5.659907e-02 -1.436287e-02 4.615641e-03
<VARIANCE> 39
 1.958475e+01 5.592150e+01 2.668255e+01 5.429033e+01 4.684061e+01 3.928212e+01 4.608136e+01 3.568167e+01 3.722291e+01 3.688463e+01 3.936108e+01 3.230643e+01 3.524829e-02 2.945098e+00 2.387097e+00 2.654693e+00 3.318031e+00 2.880440e+00 4.818870e+00 3.022964e+00 4.208428e+00 3.941123e+00 3.598316e+00 3.222584e+00 3.411504e+00 4.837090e-03 1.797980e-01 4.772569e-01 4.106532e-01 5.800050e-01 8.304628e-01 6.673996e-01 8.129869e-01 6.358120e-01 5.685505e-01 5.939236e-01 6.225029e-01 5.366381e-01 3.820011e-04
<GCONST> 1.057292e+02
<TRANSP> 12
 0.000000e+00 1.000000e+00 0.000000e+00 0.000000e+00 0.000000e+00 0.000000e+00 0.000000e+00 0.000000e+00 0.000000e+00 0.000000e+00 0.000000e+00 0.000000e+00
 0.000000e+00 7.592046e-01 2.407953e-01 0.000000e+00 0.000000e+00 0.000000e+00 0.000000e+00 0.000000e+00 0.000000e+00 0.000000e+00 0.000000e+00 0.000000e+00
 0.000000e+00 0.000000e+00 7.888258e-01 2.111742e-01 0.000000e+00 0.000000e+00 0.000000e+00 0.000000e+00 0.000000e+00 0.000000e+00 0.000000e+00 0.000000e+00
 0.000000e+00 0.000000e+00 0.000000e+00 7.822093e-01 2.177907e-01 0.000000e+00 0.000000e+00 0.000000e+00 0.000000e+00 0.000000e+00 0.000000e+00 0.000000e+00
 0.000000e+00 0.000000e+00 0.000000e+00 0.000000e+00 6.718500e-01 3.281500e-01 0.000000e+00 0.000000e+00 0.000000e+00 0.000000e+00 0.000000e+00 0.000000e+00
 0.000000e+00 0.000000e+00 0.000000e+00 0.000000e+00 0.000000e+00 4.170093e-01 5.829907e-01 0.000000e+00 0.000000e+00 0.000000e+00 0.000000e+00 0.000000e+00
 0.000000e+00 0.000000e+00 0.000000e+00 0.000000e+00 0.000000e+00 0.000000e+00 2.323903e-01 7.676097e-01 0.000000e+00 0.000000e+00 0.000000e+00 0.000000e+00
 0.000000e+00 0.000000e+00 0.000000e+00 0.000000e+00 0.000000e+00 0.000000e+00 0.000000e+00 1.430800e-01 8.569201e-01 0.000000e+00 0.000000e+00 0.000000e+00
 0.000000e+00 0.000000e+00 0.000000e+00 0.000000e+00 0.000000e+00 0.000000e+00 0.000000e+00 0.000000e+00 3.389403e-01 6.610597e-01 0.000000e+00 0.000000e+00
 0.000000e+00 0.000000e+00 0.000000e+00 0.000000e+00 0.000000e+00 0.000000e+00 0.000000e+00 0.000000e+00 0.000000e+00 1.200109e-01 8.799891e-01 0.000000e+00
 0.000000e+00 0.000000e+00 0.000000e+00 0.000000e+00 0.000000e+00 0.000000e+00 0.000000e+00 0.000000e+00 0.000000e+00 0.000000e+00 1.070214e-01 8.929785e-01
 0.000000e+00 0.000000e+00 0.000000e+00 0.000000e+00 0.000000e+00 0.000000e+00 0.000000e+00 0.000000e+00 0.000000e+00 0.000000e+00 0.000000e+00 0.000000e+00
<ENDHMM>
~h "#u"
<BEGINHMM>
<NUMSTATES> 12
<STATE> 2
<NUMMIXES> 10
<MIXTURE> 1 3.644393e-02
<MEAN> 39
 5.382044e+00 -6.867540e+00 -4.179967e+00 4.689597e+00 -4.684866e+00 -1.049365e+01 4.359567e-01 8.287249e+00 -2.093001e+00 -5.511339e+00 -7.521266e-01 1.147212e+00 8.791222e-01 2.010503e+00 6.874555e-01 -1.894897e+00 1.007992e+00 3.359718e+00 -6.919933e-01 -3.033763e+00 1.518292e+00 3.176947e+00 1.081565e-01 -8.363867e-01 2.765001e-01 -1.224021e-02 -1.497679e-01 4.768869e-01 2.179435e-01 -1.125885e+00 3.234490e-01 1.345706e+00 -5.248281e-01 -1.547490e+00 4.780682e-01 1.096790e+00 -2.632918e-01 -5.625156e-01 1.115256e-03
<VARIANCE> 39
 1.209192e+01 2.805105e+01 1.405761e+01 1.664318e+01 2.828760e+01 2.440680e+01 4.264879e+01 4.625233e+01 3.219111e+01 3.712038e+01 2.850440e+01 3.953350e+01 4.109658e-03 3.104152e-01 9.542825e-01 1.242254e+00 1.856930e+00 2.087164e+00 3.201697e+00 3.542689e+00 2.781260e+00 2.130014e+00 2.257124e+00 1.607228e+00 2.261293e+00 1.329678e-04 6.291720e-02 1.344148e-01 1.191153e-01 3.028806e-01 3.109301e-01 3.691244e-01 4.964307e-01 5.522336e-01 6.104705e-01 2.342167e-01 2.667384e-01 4.161111e-01 1.414180e-05
<GCONST> 7.658028e+01
<MIXTURE> 2 6.587787e-02
<MEAN> 39
 7.095002e+00 -5.470579e+00 -6.662021e+00 3.596485e+00 -1.554370e+00 -1.144646e+01 -4.184525e+00 5.129851e+00 1.945870e+00 -1.741533e+00 -4.978990e+00 -1.396181e+00 8.816997e-01 1.624729e+00 6.953774e-01 -1.873845e+00 -2.688609e-01 2.801979e+00 1.016603e+00 -2.546575e+00 -1.135969e+00 1.644624e+00 1.569403e+00 -4.767134e-01 -1.104014e+00 -8.566089e-03 -2.251582e-01 3.608745e-01 4.711319e-01 -8.959795e-01 -2.510585e-01 1.232960e+00 4.547353e-01 -1.054825e+00 -4.462246e-01 5.586579e-01 5.201328e-01 -1.800893e-01 -4.678691e-04
<VARIANCE> 39
 1.375666e+01 2.109334e+01 2.203765e+01 1.736004e+01 3.159318e+01 3.226744e+01 4.271343e+01 4.207802e+01 3.115283e+01 3.739966e+01 4.667175e+01 5.576205e+01 5.532942e-03 4.561907e-01 7.150635e-01 1.720858e+00 1.916281e+00 2.529117e+00 2.897956e+00 2.557346e+00 3.212137e+00 1.936180e+00 2.614903e+00 2.240455e+00 2.834247e+00 1.136356e-04 7.653302e-02 1.689283e-01 2.526214e-01 5.236618e-01 4.635804e-01 3.914038e-01 7.221223e-01 4.678302e-01 5.897757e-01 4.130904e-01 4.859373e-01 4.993305e-01 1.386101e-05
<GCONST> 8.282429e+01
<MIXTURE> 3 1.134774e-01
<MEAN> 39
 9.516879e+00 -2.970056e+00 -1.011098e+01 3.832902e-01 4.406328e+00 -4.323619e+00 -5.624854e+00 2.081061e-01 3.656991e+00 4.165158e+00 -3.374917e+00 -4.763808e+00 8.545942e-01 1.047403e+00 1.091282e+00 -3.733907e-01 -1.123279e+00 6.155562e-01 1.917734e+00 -6.602647e-03 -1.846848e+00 -4.720465e-01 1.782863e+00 1.629719e+00 -9.457620e-02 -8.965945e-03 -2.158817e-01 -6.087741e-02 3.843905e-01 -7.750413e-02 -6.370239e-01 -4.064307e-03 7.115924e-01 1.281711e-01 -7.923113e-01 -5.210155e-01 3.547463e-01 5.323953e-01 2.410456e-04
<VARIANCE> 39
 1.323076e+01 2.551671e+01 2.554779e+01 2.023172e+01 2.090058e+01 3.229159e+01 3.273661e+01 3.253547e+01 2.925496e+01 3.270592e+01 3.379790e+01 2.681085e+01 7.061358e-03 3.338203e-01 5.814656e-01 1.034788e+00 1.320693e+00 2.112688e+00 2.372050e+00 2.337885e+00 2.213696e+00 2.424960e+00 2.066012e+00 2.262183e+00 2.484941e+00 1.619811e-04 5.270261e-02 9.953482e-02 1.732851e-01 2.306210e-01 3.258510e-01 3.648074e-01 4.590628e-01 4.255179e-01 3.368502e-01 4.235117e-01 3.903609e-01 3.168545e-01 1.933174e-05
<GCONST> 7.536670e+01
<MIXTURE> 4 6.891619e-02
<MEAN> 39
